{"learner":{"attributes":{"best_iteration":"499","best_score":"3429.894812329251","scikit_learn":"{\"_estimator_type\": \"regressor\"}"},"feature_names":["dayofyear","hour","dayofweek","quarter","month","year","lag1","lag2","lag3"],"feature_types":["int","int","int","int","int","int","float","float","float"],"gradient_booster":{"model":{"gbtree_model_param":{"num_parallel_tree":"1","num_trees":"500"},"iteration_indptr":[0,1,2,3,4,5,6,7,8,9,10,11,12,13,14,15,16,17,18,19,20,21,22,23,24,25,26,27,28,29,30,31,32,33,34,35,36,37,38,39,40,41,42,43,44,45,46,47,48,49,50,51,52,53,54,55,56,57,58,59,60,61,62,63,64,65,66,67,68,69,70,71,72,73,74,75,76,77,78,79,80,81,82,83,84,85,86,87,88,89,90,91,92,93,94,95,96,97,98,99,100,101,102,103,104,105,106,107,108,109,110,111,112,113,114,115,116,117,118,119,120,121,122,123,124,125,126,127,128,129,130,131,132,133,134,135,136,137,138,139,140,141,142,143,144,145,146,147,148,149,150,151,152,153,154,155,156,157,158,159,160,161,162,163,164,165,166,167,168,169,170,171,172,173,174,175,176,177,178,179,180,181,182,183,184,185,186,187,188,189,190,191,192,193,194,195,196,197,198,199,200,201,202,203,204,205,206,207,208,209,210,211,212,213,214,215,216,217,218,219,220,221,222,223,224,225,226,227,228,229,230,231,232,233,234,235,236,237,238,239,240,241,242,243,244,245,246,247,248,249,250,251,252,253,254,255,256,257,258,259,260,261,262,263,264,265,266,267,268,269,270,271,272,273,274,275,276,277,278,279,280,281,282,283,284,285,286,287,288,289,290,291,292,293,294,295,296,297,298,299,300,301,302,303,304,305,306,307,308,309,310,311,312,313,314,315,316,317,318,319,320,321,322,323,324,325,326,327,328,329,330,331,332,333,334,335,336,337,338,339,340,341,342,343,344,345,346,347,348,349,350,351,352,353,354,355,356,357,358,359,360,361,362,363,364,365,366,367,368,369,370,371,372,373,374,375,376,377,378,379,380,381,382,383,384,385,386,387,388,389,390,391,392,393,394,395,396,397,398,399,400,401,402,403,404,405,406,407,408,409,410,411,412,413,414,415,416,417,418,419,420,421,422,423,424,425,426,427,428,429,430,431,432,433,434,435,436,437,438,439,440,441,442,443,444,445,446,447,448,449,450,451,452,453,454,455,456,457,458,459,460,461,462,463,464,465,466,467,468,469,470,471,472,473,474,475,476,477,478,479,480,481,482,483,484,485,486,487,488,489,490,491,492,493,494,495,496,497,498,499,500],"tree_info":[0,0,0,0,0,0,0,0,0,0,0,0,0,0,0,0,0,0,0,0,0,0,0,0,0,0,0,0,0,0,0,0,0,0,0,0,0,0,0,0,0,0,0,0,0,0,0,0,0,0,0,0,0,0,0,0,0,0,0,0,0,0,0,0,0,0,0,0,0,0,0,0,0,0,0,0,0,0,0,0,0,0,0,0,0,0,0,0,0,0,0,0,0,0,0,0,0,0,0,0,0,0,0,0,0,0,0,0,0,0,0,0,0,0,0,0,0,0,0,0,0,0,0,0,0,0,0,0,0,0,0,0,0,0,0,0,0,0,0,0,0,0,0,0,0,0,0,0,0,0,0,0,0,0,0,0,0,0,0,0,0,0,0,0,0,0,0,0,0,0,0,0,0,0,0,0,0,0,0,0,0,0,0,0,0,0,0,0,0,0,0,0,0,0,0,0,0,0,0,0,0,0,0,0,0,0,0,0,0,0,0,0,0,0,0,0,0,0,0,0,0,0,0,0,0,0,0,0,0,0,0,0,0,0,0,0,0,0,0,0,0,0,0,0,0,0,0,0,0,0,0,0,0,0,0,0,0,0,0,0,0,0,0,0,0,0,0,0,0,0,0,0,0,0,0,0,0,0,0,0,0,0,0,0,0,0,0,0,0,0,0,0,0,0,0,0,0,0,0,0,0,0,0,0,0,0,0,0,0,0,0,0,0,0,0,0,0,0,0,0,0,0,0,0,0,0,0,0,0,0,0,0,0,0,0,0,0,0,0,0,0,0,0,0,0,0,0,0,0,0,0,0,0,0,0,0,0,0,0,0,0,0,0,0,0,0,0,0,0,0,0,0,0,0,0,0,0,0,0,0,0,0,0,0,0,0,0,0,0,0,0,0,0,0,0,0,0,0,0,0,0,0,0,0,0,0,0,0,0,0,0,0,0,0,0,0,0,0,0,0,0,0,0,0,0,0,0,0,0,0,0,0,0,0,0,0,0,0,0,0,0,0,0,0,0,0,0,0,0,0,0,0,0,0,0,0,0,0,0,0,0,0,0,0,0,0,0,0,0,0,0,0,0,0,0,0,0,0,0,0,0,0,0,0,0,0,0,0,0,0,0,0,0,0,0,0,0,0,0,0],"trees":[{"base_weights":[3.213687E4,2.8829016E4,3.669182E4,2.553995E4,3.078036E4,3.511867E4,4.11451E4,2.3803317E2,2.6816544E2,2.8507263E2,3.1893845E2,3.3842813E2,3.7225455E2,3.7358572E2,4.2529156E2],"categories":[],"categories_nodes":[],"categories_segments":[],"categories_sizes":[],"default_left":[1,0,0,0,0,1,0,0,0,0,0,0,0,0,0],"id":0,"left_children":[1,3,5,7,9,11,13,-1,-1,-1,-1,-1,-1,-1,-1],"loss_changes":[2.0566182E12,5.0700747E11,4.010258E11,6.468875E10,1.2476377E11,1.1287711E11,7.697387E10,0E0,0E0,0E0,0E0,0E0,0E0,0E0,0E0],"parents":[2147483647,0,0,1,1,2,2,3,3,4,4,5,5,6,6],"right_children":[2,4,6,8,10,12,14,-1,-1,-1,-1,-1,-1,-1,-1],"split_conditions":[3.2253E4,2.7309E4,3.9837E4,2.4151E4,8E0,3.5706E4,1.72E2,2.3803317E2,2.6816544E2,2.8507263E2,3.1893845E2,3.3842813E2,3.7225455E2,3.7358572E2,4.2529156E2],"split_indices":[6,6,6,6,1,7,0,0,0,0,0,0,0,0,0],"split_type":[0,0,0,0,0,0,0,0,0,0,0,0,0,0,0],"sum_hessian":[1.36567E5,7.9118E4,5.7449E4,2.9466E4,4.9652E4,4.2459E4,1.499E4,1.2492E4,1.6974E4,1.6334E4,3.3318E4,2.6455E4,1.6004E4,4.02E3,1.097E4],"tree_param":{"num_deleted":"0","num_feature":"9","num_nodes":"15","size_leaf_vector":"1"}},{"base_weights":[3.181552E4,2.854074E4,3.632493E4,2.5371328E4,3.0525611E4,3.4767504E4,4.0733703E4,2.3565305E2,2.6624655E2,2.824848E2,3.1612958E2,3.3687714E2,3.7231506E2,3.698508E2,4.21039E2],"categories":[],"categories_nodes":[],"categories_segments":[],"categories_sizes":[],"default_left":[1,0,0,0,0,1,0,0,0,0,0,0,0,0,0],"id":1,"left_children":[1,3,5,7,9,11,13,-1,-1,-1,-1,-1,-1,-1,-1],"loss_changes":[2.015707E12,4.9695372E11,3.9305662E11,6.8354572E10,1.1955444E11,1.1171529E11,7.543875E10,0E0,0E0,0E0,0E0,0E0,0E0,0E0,0E0],"parents":[2147483647,0,0,1,1,2,2,3,3,4,4,5,5,6,6],"right_children":[2,4,6,8,10,12,14,-1,-1,-1,-1,-1,-1,-1,-1],"split_conditions":[3.2253E4,2.7473E4,3.9837E4,2.4151E4,8E0,3.6239E4,1.72E2,2.3565305E2,2.6624655E2,2.824848E2,3.1612958E2,3.3687714E2,3.7231506E2,3.698508E2,4.21039E2],"split_indices":[6,6,6,6,1,8,0,0,0,0,0,0,0,0,0],"split_type":[0,0,0,0,0,0,0,0,0,0,0,0,0,0,0],"sum_hessian":[1.36567E5,7.9118E4,5.7449E4,3.0473E4,4.8645E4,4.2459E4,1.499E4,1.2492E4,1.7981E4,1.573E4,3.2915E4,2.9532E4,1.2927E4,4.02E3,1.097E4],"tree_param":{"num_deleted":"0","num_feature":"9","num_nodes":"15","size_leaf_vector":"1"}},{"base_weights":[3.1497383E4,2.8255346E4,3.5961707E4,2.4988205E4,3.0143232E4,3.4419844E4,4.0326418E4,2.3267966E2,2.6198856E2,2.792431E2,3.1242725E2,3.3161566E2,3.6497607E2,3.661532E2,4.16829E2],"categories":[],"categories_nodes":[],"categories_segments":[],"categories_sizes":[],"default_left":[1,0,0,0,0,1,0,0,0,0,0,0,0,0,0],"id":2,"left_children":[1,3,5,7,9,11,13,-1,-1,-1,-1,-1,-1,-1,-1],"loss_changes":[1.9755927E12,4.872481E11,3.8524682E11,5.974786E10,1.2145027E11,1.09794296E11,7.393929E10,0E0,0E0,0E0,0E0,0E0,0E0,0E0,0E0],"parents":[2147483647,0,0,1,1,2,2,3,3,4,4,5,5,6,6],"right_children":[2,4,6,8,10,12,14,-1,-1,-1,-1,-1,-1,-1,-1],"split_conditions":[3.2253E4,2.7227E4,3.9837E4,2.4045E4,8E0,3.5706E4,1.72E2,2.3267966E2,2.6198856E2,2.792431E2,3.1242725E2,3.3161566E2,3.6497607E2,3.661532E2,4.16829E2],"split_indices":[6,6,6,6,1,7,0,0,0,0,0,0,0,0,0],"split_type":[0,0,0,0,0,0,0,0,0,0,0,0,0,0,0],"sum_hessian":[1.36567E5,7.9118E4,5.7449E4,2.898E4,5.0138E4,4.2459E4,1.499E4,1.1979E4,1.7001E4,1.6621E4,3.3517E4,2.6455E4,1.6004E4,4.02E3,1.097E4],"tree_param":{"num_deleted":"0","num_feature":"9","num_nodes":"15","size_leaf_vector":"1"}},{"base_weights":[3.1182428E4,2.7972807E4,3.5602113E4,2.4865672E4,2.9918676E4,3.407566E4,3.9923207E4,2.3151562E2,2.613463E2,2.7686786E2,3.0984415E2,3.2978027E2,3.6434253E2,3.624926E2,4.1266113E2],"categories":[],"categories_nodes":[],"categories_segments":[],"categories_sizes":[],"default_left":[1,0,0,0,0,1,0,0,0,0,0,0,0,0,0],"id":3,"left_children":[1,3,5,7,9,11,13,-1,-1,-1,-1,-1,-1,-1,-1],"loss_changes":[1.936292E12,4.7761798E11,3.7757125E11,6.5678606E10,1.1484843E11,1.0872475E11,7.246709E10,0E0,0E0,0E0,0E0,0E0,0E0,0E0,0E0],"parents":[2147483647,0,0,1,1,2,2,3,3,4,4,5,5,6,6],"right_children":[2,4,6,8,10,12,14,-1,-1,-1,-1,-1,-1,-1,-1],"split_conditions":[3.2253E4,2.7473E4,3.9837E4,2.4266E4,8E0,3.6058E4,1.72E2,2.3151562E2,2.613463E2,2.7686786E2,3.0984415E2,3.2978027E2,3.6434253E2,3.624926E2,4.1266113E2],"split_indices":[6,6,6,6,1,8,0,0,0,0,0,0,0,0,0],"split_type":[0,0,0,0,0,0,0,0,0,0,0,0,0,0,0],"sum_hessian":[1.36567E5,7.9118E4,5.7449E4,3.0473E4,4.8645E4,4.2459E4,1.499E4,1.2971E4,1.7502E4,1.573E4,3.2915E4,2.8985E4,1.3474E4,4.02E3,1.097E4],"tree_param":{"num_deleted":"0","num_feature":"9","num_nodes":"15","size_leaf_vector":"1"}},{"base_weights":[3.0870623E4,2.7693092E4,3.5246117E4,2.4490355E4,2.9543764E4,3.373492E4,3.9524027E4,2.2862001E2,2.572312E2,2.7369064E2,3.0621344E2,3.2494012E2,3.5784018E2,3.588686E2,4.085349E2],"categories":[],"categories_nodes":[],"categories_segments":[],"categories_sizes":[],"default_left":[1,0,0,0,0,1,0,0,0,0,0,0,0,0,0],"id":4,"left_children":[1,3,5,7,9,11,13,-1,-1,-1,-1,-1,-1,-1,-1],"loss_changes":[1.8977632E12,4.682395E11,3.7006344E11,5.7588842E10,1.1665618E11,1.0679956E11,7.102215E10,0E0,0E0,0E0,0E0,0E0,0E0,0E0,0E0],"parents":[2147483647,0,0,1,1,2,2,3,3,4,4,5,5,6,6],"right_children":[2,4,6,8,10,12,14,-1,-1,-1,-1,-1,-1,-1,-1],"split_conditions":[3.2253E4,2.7227E4,3.9837E4,2.4916E4,8E0,3.5706E4,1.72E2,2.2862001E2,2.572312E2,2.7369064E2,3.0621344E2,3.2494012E2,3.5784018E2,3.588686E2,4.085349E2],"split_indices":[6,6,6,7,1,7,0,0,0,0,0,0,0,0,0],"split_type":[0,0,0,0,0,0,0,0,0,0,0,0,0,0,0],"sum_hessian":[1.36567E5,7.9118E4,5.7449E4,2.898E4,5.0138E4,4.2459E4,1.499E4,1.2495E4,1.6485E4,1.6621E4,3.3517E4,2.6455E4,1.6004E4,4.02E3,1.097E4],"tree_param":{"num_deleted":"0","num_feature":"9","num_nodes":"15","size_leaf_vector":"1"}},{"base_weights":[3.0561936E4,2.7416174E4,3.4893684E4,2.444904E4,2.9375422E4,3.339759E4,3.912884E4,2.2681844E2,2.568679E2,2.716003E2,3.0406165E2,3.2377112E2,3.586628E2,3.5528076E2,4.0444992E2],"categories":[],"categories_nodes":[],"categories_segments":[],"categories_sizes":[],"default_left":[1,0,0,0,0,1,0,0,0,0,0,0,0,0,0],"id":5,"left_children":[1,3,5,7,9,11,13,-1,-1,-1,-1,-1,-1,-1,-1],"loss_changes":[1.8600144E12,4.5923434E11,3.6270663E11,6.8258103E10,1.0797397E11,1.0580551E11,6.960657E10,0E0,0E0,0E0,0E0,0E0,0E0,0E0,0E0],"parents":[2147483647,0,0,1,1,2,2,3,3,4,4,5,5,6,6],"right_children":[2,4,6,8,10,12,14,-1,-1,-1,-1,-1,-1,-1,-1],"split_conditions":[3.2253E4,2.7628E4,3.9837E4,2.4266E4,8E0,3.6423E4,1.72E2,2.2681844E2,2.568679E2,2.716003E2,3.0406165E2,3.2377112E2,3.586628E2,3.5528076E2,4.0444992E2],"split_indices":[6,6,6,6,1,8,0,0,0,0,0,0,0,0,0],"split_type":[0,0,0,0,0,0,0,0,0,0,0,0,0,0,0],"sum_hessian":[1.36567E5,7.9118E4,5.7449E4,3.1471E4,4.7647E4,4.2459E4,1.499E4,1.2971E4,1.85E4,1.5138E4,3.2509E4,3.0051E4,1.2408E4,4.02E3,1.097E4],"tree_param":{"num_deleted":"0","num_feature":"9","num_nodes":"15","size_leaf_vector":"1"}},{"base_weights":[3.0256334E4,2.7071154E4,3.4449848E4,2.3823523E4,2.8800172E4,3.2986844E4,3.87376E4,2.2138396E2,2.489763E2,2.6742548E2,2.9888315E2,3.1646115E2,3.4865164E2,3.5172885E2,4.0040582E2],"categories":[],"categories_nodes":[],"categories_segments":[],"categories_sizes":[],"default_left":[1,0,0,0,0,1,0,0,0,0,0,0,0,0,0],"id":6,"left_children":[1,3,5,7,9,11,13,-1,-1,-1,-1,-1,-1,-1,-1],"loss_changes":[1.823222E12,4.3516743E11,3.6850736E11,4.8270148E10,1.12600285E11,1.0959716E11,6.822245E10,0E0,0E0,0E0,0E0,0E0,0E0,0E0,0E0],"parents":[2147483647,0,0,1,1,2,2,3,3,4,4,5,5,6,6],"right_children":[2,4,6,8,10,12,14,-1,-1,-1,-1,-1,-1,-1,-1],"split_conditions":[3.2094E4,2.6911E4,3.9837E4,2.4367E4,8E0,3.5133E4,1.72E2,2.2138396E2,2.489763E2,2.6742548E2,2.9888315E2,3.1646115E2,3.4865164E2,3.5172885E2,4.0040582E2],"split_indices":[6,6,6,7,1,7,0,0,0,0,0,0,0,0,0],"split_type":[0,0,0,0,0,0,0,0,0,0,0,0,0,0,0],"sum_hessian":[1.36567E5,7.7619E4,5.8948E4,2.6972E4,5.0647E4,4.3958E4,1.499E4,1.0508E4,1.6464E4,1.7528E4,3.3119E4,2.566E4,1.8298E4,4.02E3,1.097E4],"tree_param":{"num_deleted":"0","num_feature":"9","num_nodes":"15","size_leaf_vector":"1"}},{"base_weights":[2.995379E4,2.7072803E4,3.450079E4,2.4254355E4,2.9149318E4,3.298026E4,3.8350273E4,2.2435175E2,2.5583266E2,2.6794293E2,3.0104095E2,3.1955783E2,3.5257053E2,3.4821246E2,3.964021E2],"categories":[],"categories_nodes":[],"categories_segments":[],"categories_sizes":[],"default_left":[1,0,0,0,0,1,0,0,0,0,0,0,0,0,0],"id":7,"left_children":[1,3,5,7,9,11,13,-1,-1,-1,-1,-1,-1,-1,-1],"loss_changes":[1.7880905E12,4.885861E11,3.087553E11,8.518002E10,1.0742032E11,8.744704E10,6.6859303E10,0E0,0E0,0E0,0E0,0E0,0E0,0E0,0E0],"parents":[2147483647,0,0,1,1,2,2,3,3,4,4,5,5,6,6],"right_children":[2,4,6,8,10,12,14,-1,-1,-1,-1,-1,-1,-1,-1],"split_conditions":[3.2764E4,2.8217E4,3.9837E4,2.47E4,8E0,3.6423E4,1.72E2,2.2435175E2,2.5583266E2,2.6794293E2,3.0104095E2,3.1955783E2,3.5257053E2,3.4821246E2,3.964021E2],"split_indices":[6,6,6,6,1,8,0,0,0,0,0,0,0,0,0],"split_type":[0,0,0,0,0,0,0,0,0,0,0,0,0,0,0],"sum_hessian":[1.36567E5,8.3603E4,5.2964E4,3.5471E4,4.8132E4,3.7974E4,1.499E4,1.4981E4,2.049E4,1.3893E4,3.4239E4,2.62E4,1.1774E4,4.02E3,1.097E4],"tree_param":{"num_deleted":"0","num_feature":"9","num_nodes":"15","size_leaf_vector":"1"}},{"base_weights":[2.965427E4,2.6824326E4,3.4191227E4,2.4011826E4,2.8874863E4,3.2679691E4,3.796682E4,2.2357945E2,2.5446751E2,2.653748E2,2.981744E2,3.0833963E2,3.3916455E2,3.447312E2,3.9243842E2],"categories":[],"categories_nodes":[],"categories_segments":[],"categories_sizes":[],"default_left":[1,0,0,0,0,0,0,0,0,0,0,0,0,0,0],"id":8,"left_children":[1,3,5,7,9,11,13,-1,-1,-1,-1,-1,-1,-1,-1],"loss_changes":[1.7525228E12,4.843876E11,2.9813113E11,8.361345E10,1.0636755E11,8.448167E10,6.552971E10,0E0,0E0,0E0,0E0,0E0,0E0,0E0,0E0],"parents":[2147483647,0,0,1,1,2,2,3,3,4,4,5,5,6,6],"right_children":[2,4,6,8,10,12,14,-1,-1,-1,-1,-1,-1,-1,-1],"split_conditions":[3.2823E4,2.8217E4,3.9837E4,2.5027E4,8E0,3.439E4,1.72E2,2.2357945E2,2.5446751E2,2.653748E2,2.981744E2,3.0833963E2,3.3916455E2,3.447312E2,3.9243842E2],"split_indices":[6,6,6,6,1,8,0,0,0,0,0,0,0,0,0],"split_type":[0,0,0,0,0,0,0,0,0,0,0,0,0,0,0],"sum_hessian":[1.36567E5,8.411E4,5.2457E4,3.5471E4,4.8639E4,3.7467E4,1.499E4,1.6486E4,1.8985E4,1.3986E4,3.4653E4,1.5043E4,2.2424E4,4.02E3,1.097E4],"tree_param":{"num_deleted":"0","num_feature":"9","num_nodes":"15","size_leaf_vector":"1"}},{"base_weights":[2.9357744E4,2.626542E4,3.3429008E4,2.3111389E4,2.7944605E4,3.2010207E4,3.7587203E4,2.1502263E2,2.4194086E2,2.5948004E2,2.900048E2,3.0815793E2,3.4046777E2,3.4128473E2,3.885144E2],"categories":[],"categories_nodes":[],"categories_segments":[],"categories_sizes":[],"default_left":[1,0,0,0,0,1,0,0,0,0,0,0,0,0,0],"id":9,"left_children":[1,3,5,7,9,11,13,-1,-1,-1,-1,-1,-1,-1,-1],"loss_changes":[1.7184735E12,4.104462E11,3.4657534E11,4.647289E10,1.0602362E11,1.0588101E11,6.422528E10,0E0,0E0,0E0,0E0,0E0,0E0,0E0,0E0],"parents":[2147483647,0,0,1,1,2,2,3,3,4,4,5,5,6,6],"right_children":[2,4,6,8,10,12,14,-1,-1,-1,-1,-1,-1,-1,-1],"split_conditions":[3.2094E4,2.6911E4,3.9837E4,2.4476E4,8E0,3.5706E4,1.72E2,2.1502263E2,2.4194086E2,2.5948004E2,2.900048E2,3.0815793E2,3.4046777E2,3.4128473E2,3.885144E2],"split_indices":[6,6,6,7,1,7,0,0,0,0,0,0,0,0,0],"split_type":[0,0,0,0,0,0,0,0,0,0,0,0,0,0,0],"sum_hessian":[1.36567E5,7.7619E4,5.8948E4,2.6972E4,5.0647E4,4.3958E4,1.499E4,1.0857E4,1.6115E4,1.7528E4,3.3119E4,2.7718E4,1.624E4,4.02E3,1.097E4],"tree_param":{"num_deleted":"0","num_feature":"9","num_nodes":"15","size_leaf_vector":"1"}},{"base_weights":[2.9064184E4,2.6289521E4,3.3512516E4,2.3530543E4,2.830104E4,3.2209957E4,3.774728E4,2.1761E2,2.4823195E2,2.6008453E2,2.9225552E2,3.1132397E2,3.4515265E2,3.3438016E2,3.8764096E2],"categories":[],"categories_nodes":[],"categories_segments":[],"categories_sizes":[],"default_left":[1,0,1,0,0,0,0,0,0,0,0,0,0,0,0],"id":10,"left_children":[1,3,5,7,9,11,13,-1,-1,-1,-1,-1,-1,-1,-1],"loss_changes":[1.6847261E12,4.661256E11,2.881445E11,8.059984E10,1.0233682E11,9.85997E10,5.2748616E10,0E0,0E0,0E0,0E0,0E0,0E0,0E0,0E0],"parents":[2147483647,0,0,1,1,2,2,3,3,4,4,5,5,6,6],"right_children":[2,4,6,8,10,12,14,-1,-1,-1,-1,-1,-1,-1,-1],"split_conditions":[3.2823E4,2.8217E4,3.9744E4,2.47E4,8E0,3.7974E4,1.59E2,2.1761E2,2.4823195E2,2.6008453E2,2.9225552E2,3.1132397E2,3.4515265E2,3.3438016E2,3.8764096E2],"split_indices":[6,6,8,6,1,6,0,0,0,0,0,0,0,0,0],"split_type":[0,0,0,0,0,0,0,0,0,0,0,0,0,0,0],"sum_hessian":[1.36567E5,8.411E4,5.2457E4,3.5471E4,4.8639E4,4.0124E4,1.2333E4,1.4981E4,2.049E4,1.3986E4,3.4653E4,2.7353E4,1.2771E4,2.361E3,9.972E3],"tree_param":{"num_deleted":"0","num_feature":"9","num_nodes":"15","size_leaf_vector":"1"}},{"base_weights":[2.877356E4,2.5741877E4,3.2764982E4,2.2649076E4,2.7388465E4,3.1371658E4,3.6848523E4,2.102011E2,2.368741E2,2.5431638E2,2.8423303E2,3.0324506E2,3.36247E2,3.3440842E2,3.809412E2],"categories":[],"categories_nodes":[],"categories_segments":[],"categories_sizes":[],"default_left":[1,0,0,0,0,1,0,0,0,0,0,0,0,0,0],"id":11,"left_children":[1,3,5,7,9,11,13,-1,-1,-1,-1,-1,-1,-1,-1],"loss_changes":[1.6517253E12,3.9466303E11,3.3424828E11,4.512442E10,1.01841895E11,1.02689145E11,6.2356718E10,0E0,0E0,0E0,0E0,0E0,0E0,0E0,0E0],"parents":[2147483647,0,0,1,1,2,2,3,3,4,4,5,5,6,6],"right_children":[2,4,6,8,10,12,14,-1,-1,-1,-1,-1,-1,-1,-1],"split_conditions":[3.2094E4,2.6911E4,3.9837E4,2.4367E4,8E0,3.5964E4,1.72E2,2.102011E2,2.368741E2,2.5431638E2,2.8423303E2,3.0324506E2,3.36247E2,3.3440842E2,3.809412E2],"split_indices":[6,6,6,7,1,8,0,0,0,0,0,0,0,0,0],"split_type":[0,0,0,0,0,0,0,0,0,0,0,0,0,0,0],"sum_hessian":[1.36567E5,7.7619E4,5.8948E4,2.6972E4,5.0647E4,4.3958E4,1.499E4,1.0508E4,1.6464E4,1.7528E4,3.3119E4,3.002E4,1.3938E4,4.02E3,1.097E4],"tree_param":{"num_deleted":"0","num_feature":"9","num_nodes":"15","size_leaf_vector":"1"}},{"base_weights":[2.8485842E4,2.5765305E4,3.28474E4,2.305889E4,2.7738498E4,3.156655E4,3.7011594E4,2.146461E2,2.4442111E2,2.5489906E2,2.864527E2,3.0510666E2,3.3825476E2,3.2768192E2,3.801289E2],"categories":[],"categories_nodes":[],"categories_segments":[],"categories_sizes":[],"default_left":[1,0,1,0,0,0,0,0,0,0,0,0,0,0,0],"id":12,"left_children":[1,3,5,7,9,11,13,-1,-1,-1,-1,-1,-1,-1,-1],"loss_changes":[1.6196389E12,4.4853887E11,2.7862342E11,7.769948E10,9.844451E10,9.467383E10,5.1160023E10,0E0,0E0,0E0,0E0,0E0,0E0,0E0,0E0],"parents":[2147483647,0,0,1,1,2,2,3,3,4,4,5,5,6,6],"right_children":[2,4,6,8,10,12,14,-1,-1,-1,-1,-1,-1,-1,-1],"split_conditions":[3.2823E4,2.8217E4,3.9744E4,2.5027E4,8E0,3.7974E4,1.59E2,2.146461E2,2.4442111E2,2.5489906E2,2.864527E2,3.0510666E2,3.3825476E2,3.2768192E2,3.801289E2],"split_indices":[6,6,8,6,1,6,0,0,0,0,0,0,0,0,0],"split_type":[0,0,0,0,0,0,0,0,0,0,0,0,0,0,0],"sum_hessian":[1.36567E5,8.411E4,5.2457E4,3.5471E4,4.8639E4,4.0124E4,1.2333E4,1.6486E4,1.8985E4,1.3986E4,3.4653E4,2.7353E4,1.2771E4,2.361E3,9.972E3],"tree_param":{"num_deleted":"0","num_feature":"9","num_nodes":"15","size_leaf_vector":"1"}},{"base_weights":[2.8201E4,2.5228773E4,3.2114145E4,2.23614E4,2.6936713E4,3.0745834E4,3.6124383E4,2.0830455E2,2.3520464E2,2.497273E2,2.793067E2,2.9460977E2,3.254593E2,3.2766998E2,3.735161E2],"categories":[],"categories_nodes":[],"categories_segments":[],"categories_sizes":[],"default_left":[1,0,0,0,0,1,0,0,0,0,0,0,0,0,0],"id":13,"left_children":[1,3,5,7,9,11,13,-1,-1,-1,-1,-1,-1,-1,-1],"loss_changes":[1.5875776E12,3.795258E11,3.2236162E11,5.0935628E10,9.42544E10,1.0070943E11,6.054268E10,0E0,0E0,0E0,0E0,0E0,0E0,0E0,0E0],"parents":[2147483647,0,0,1,1,2,2,3,3,4,4,5,5,6,6],"right_children":[2,4,6,8,10,12,14,-1,-1,-1,-1,-1,-1,-1,-1],"split_conditions":[3.2094E4,2.7227E4,3.9837E4,2.4916E4,8E0,3.5133E4,1.72E2,2.0830455E2,2.3520464E2,2.497273E2,2.793067E2,2.9460977E2,3.254593E2,3.2766998E2,3.735161E2],"split_indices":[6,6,6,7,1,7,0,0,0,0,0,0,0,0,0],"split_type":[0,0,0,0,0,0,0,0,0,0,0,0,0,0,0],"sum_hessian":[1.36567E5,7.7619E4,5.8948E4,2.898E4,4.8639E4,4.3958E4,1.499E4,1.2495E4,1.6485E4,1.6353E4,3.2286E4,2.566E4,1.8298E4,4.02E3,1.097E4],"tree_param":{"num_deleted":"0","num_feature":"9","num_nodes":"15","size_leaf_vector":"1"}},{"base_weights":[2.7919008E4,2.5251643E4,3.2195318E4,2.2597451E4,2.7186764E4,3.1060186E4,3.67522E4,2.0837885E2,2.3809616E2,2.498138E2,2.807611E2,3.0233847E2,3.405096E2,3.2231848E2,3.7606516E2],"categories":[],"categories_nodes":[],"categories_segments":[],"categories_sizes":[],"default_left":[1,0,1,0,0,0,0,0,0,0,0,0,0,0,0],"id":14,"left_children":[1,3,5,7,9,11,13,-1,-1,-1,-1,-1,-1,-1,-1],"loss_changes":[1.5569508E12,4.3139256E11,2.7020965E11,7.516193E10,9.4698996E10,1.0277303E11,3.916746E10,0E0,0E0,0E0,0E0,0E0,0E0,0E0,0E0],"parents":[2147483647,0,0,1,1,2,2,3,3,4,4,5,5,6,6],"right_children":[2,4,6,8,10,12,14,-1,-1,-1,-1,-1,-1,-1,-1],"split_conditions":[3.2823E4,2.8217E4,4.0694E4,2.4596E4,8E0,3.9665E4,1.59E2,2.0837885E2,2.3809616E2,2.498138E2,2.807611E2,3.0233847E2,3.405096E2,3.2231848E2,3.7606516E2],"split_indices":[6,6,8,6,1,6,0,0,0,0,0,0,0,0,0],"split_type":[0,0,0,0,0,0,0,0,0,0,0,0,0,0,0],"sum_hessian":[1.36567E5,8.411E4,5.2457E4,3.5471E4,4.8639E4,4.2002E4,1.0455E4,1.4476E4,2.0995E4,1.3986E4,3.4653E4,3.2918E4,9.084E3,1.668E3,8.787E3],"tree_param":{"num_deleted":"0","num_feature":"9","num_nodes":"15","size_leaf_vector":"1"}},{"base_weights":[2.7639834E4,2.5040055E4,3.1940242E4,2.2371488E4,2.69462E4,3.0682756E4,3.59532E4,2.0679558E2,2.3607452E2,2.4743587E2,2.7824646E2,2.9647583E2,3.2820966E2,3.1824384E2,3.6921918E2],"categories":[],"categories_nodes":[],"categories_segments":[],"categories_sizes":[],"default_left":[1,0,1,0,0,0,0,0,0,0,0,0,0,0,0],"id":15,"left_children":[1,3,5,7,9,11,13,-1,-1,-1,-1,-1,-1,-1,-1],"loss_changes":[1.5260472E12,4.3236144E11,2.585327E11,7.368973E10,9.537428E10,8.5752545E10,4.79E10,0E0,0E0,0E0,0E0,0E0,0E0,0E0,0E0],"parents":[2147483647,0,0,1,1,2,2,3,3,4,4,5,5,6,6],"right_children":[2,4,6,8,10,12,14,-1,-1,-1,-1,-1,-1,-1,-1],"split_conditions":[3.2949E4,2.8217E4,3.9744E4,2.47E4,8E0,3.7974E4,1.59E2,2.0679558E2,2.3607452E2,2.4743587E2,2.7824646E2,2.9647583E2,3.2820966E2,3.1824384E2,3.6921918E2],"split_indices":[6,6,8,6,1,6,0,0,0,0,0,0,0,0,0],"split_type":[0,0,0,0,0,0,0,0,0,0,0,0,0,0,0],"sum_hessian":[1.36567E5,8.5117E4,5.145E4,3.5471E4,4.9646E4,3.9181E4,1.2269E4,1.4981E4,2.049E4,1.4163E4,3.5483E4,2.641E4,1.2771E4,2.338E3,9.931E3],"tree_param":{"num_deleted":"0","num_feature":"9","num_nodes":"15","size_leaf_vector":"1"}},{"base_weights":[2.7363453E4,2.4477678E4,3.116278E4,2.1531453E4,2.604623E4,2.9831623E4,3.5064125E4,2.0515181E2,2.3091982E2,2.4185826E2,2.7030075E2,2.8689618E2,3.1778876E2,3.1769495E2,3.6268448E2],"categories":[],"categories_nodes":[],"categories_segments":[],"categories_sizes":[],"default_left":[1,0,0,1,0,1,0,0,0,0,0,0,0,0,0],"id":16,"left_children":[1,3,5,7,9,11,13,-1,-1,-1,-1,-1,-1,-1,-1],"loss_changes":[1.4965612E12,3.5814323E11,3.0509787E11,4.230375E10,9.205029E10,9.683809E10,5.8330186E10,0E0,0E0,0E0,0E0,0E0,0E0,0E0,0E0],"parents":[2147483647,0,0,1,1,2,2,3,3,4,4,5,5,6,6],"right_children":[2,4,6,8,10,12,14,-1,-1,-1,-1,-1,-1,-1,-1],"split_conditions":[3.2094E4,2.6911E4,3.9837E4,2.5544E4,8E0,3.5706E4,1.72E2,2.0515181E2,2.3091982E2,2.4185826E2,2.7030075E2,2.8689618E2,3.1778876E2,3.1769495E2,3.6268448E2],"split_indices":[6,6,6,7,1,7,0,0,0,0,0,0,0,0,0],"split_type":[0,0,0,0,0,0,0,0,0,0,0,0,0,0,0],"sum_hessian":[1.36567E5,7.7619E4,5.8948E4,2.6972E4,5.0647E4,4.3958E4,1.499E4,1.6343E4,1.0629E4,1.7528E4,3.3119E4,2.7718E4,1.624E4,4.02E3,1.097E4],"tree_param":{"num_deleted":"0","num_feature":"9","num_nodes":"15","size_leaf_vector":"1"}},{"base_weights":[2.7089834E4,2.448017E4,3.1208617E4,2.1923068E4,2.6364139E4,2.9982291E4,3.5237035E4,2.0211958E2,2.3101852E2,2.4228531E2,2.722996E2,2.89805E2,3.216361E2,3.1175134E2,3.6195514E2],"categories":[],"categories_nodes":[],"categories_segments":[],"categories_sizes":[],"default_left":[1,0,1,0,0,0,0,0,0,0,0,0,0,0,0],"id":17,"left_children":[1,3,5,7,9,11,13,-1,-1,-1,-1,-1,-1,-1,-1],"loss_changes":[1.4671592E12,4.0218342E11,2.605963E11,7.107982E10,8.834043E10,8.781195E10,4.697201E10,0E0,0E0,0E0,0E0,0E0,0E0,0E0,0E0],"parents":[2147483647,0,0,1,1,2,2,3,3,4,4,5,5,6,6],"right_children":[2,4,6,8,10,12,14,-1,-1,-1,-1,-1,-1,-1,-1],"split_conditions":[3.2764E4,2.8217E4,3.9744E4,2.4596E4,8E0,3.7974E4,1.59E2,2.0211958E2,2.3101852E2,2.4228531E2,2.722996E2,2.89805E2,3.216361E2,3.1175134E2,3.6195514E2],"split_indices":[6,6,8,6,1,6,0,0,0,0,0,0,0,0,0],"split_type":[0,0,0,0,0,0,0,0,0,0,0,0,0,0,0],"sum_hessian":[1.36567E5,8.3603E4,5.2964E4,3.5471E4,4.8132E4,4.061E4,1.2354E4,1.4476E4,2.0995E4,1.3893E4,3.4239E4,2.7839E4,1.2771E4,2.365E3,9.989E3],"tree_param":{"num_deleted":"0","num_feature":"9","num_nodes":"15","size_leaf_vector":"1"}},{"base_weights":[2.6818951E4,2.3989836E4,3.0543682E4,2.1100654E4,2.552802E4,2.9236395E4,3.437508E4,1.9410304E2,2.2016193E2,2.3704723E2,2.6492242E2,2.754393E2,3.0520816E2,3.1128973E2,3.556168E2],"categories":[],"categories_nodes":[],"categories_segments":[],"categories_sizes":[],"default_left":[1,0,0,0,0,0,0,0,0,0,0,0,0,0,0],"id":18,"left_children":[1,3,5,7,9,11,13,-1,-1,-1,-1,-1,-1,-1,-1],"loss_changes":[1.4383778E12,3.4441108E11,2.942556E11,4.1314943E10,8.841593E10,9.471997E10,5.6635687E10,0E0,0E0,0E0,0E0,0E0,0E0,0E0,0E0],"parents":[2147483647,0,0,1,1,2,2,3,3,4,4,5,5,6,6],"right_children":[2,4,6,8,10,12,14,-1,-1,-1,-1,-1,-1,-1,-1],"split_conditions":[3.2094E4,2.6911E4,3.9837E4,2.3463E4,8E0,3.439E4,1.72E2,1.9410304E2,2.2016193E2,2.3704723E2,2.6492242E2,2.754393E2,3.0520816E2,3.1128973E2,3.556168E2],"split_indices":[6,6,6,6,1,8,0,0,0,0,0,0,0,0,0],"split_type":[0,0,0,0,0,0,0,0,0,0,0,0,0,0,0],"sum_hessian":[1.36567E5,7.7619E4,5.8948E4,2.6972E4,5.0647E4,4.3958E4,1.499E4,9.484E3,1.7488E4,1.7528E4,3.3119E4,1.8976E4,2.4982E4,4.02E3,1.097E4],"tree_param":{"num_deleted":"0","num_feature":"9","num_nodes":"15","size_leaf_vector":"1"}},{"base_weights":[2.655078E4,2.405101E4,3.0685758E4,2.148362E4,2.5884885E4,2.9587559E4,3.5011996E4,1.9876778E2,2.2702927E2,2.3765381E2,2.6730188E2,2.8794147E2,3.2375168E2,3.0687112E2,3.582419E2],"categories":[],"categories_nodes":[],"categories_segments":[],"categories_sizes":[],"default_left":[1,0,1,0,0,0,0,0,0,0,0,0,0,0,0],"id":19,"left_children":[1,3,5,7,9,11,13,-1,-1,-1,-1,-1,-1,-1,-1],"loss_changes":[1.4108884E12,4.002037E11,2.4341224E11,6.904663E10,8.8315265E10,8.98378E10,3.547018E10,0E0,0E0,0E0,0E0,0E0,0E0,0E0,0E0],"parents":[2147483647,0,0,1,1,2,2,3,3,4,4,5,5,6,6],"right_children":[2,4,6,8,10,12,14,-1,-1,-1,-1,-1,-1,-1,-1],"split_conditions":[3.2949E4,2.8217E4,4.0694E4,2.5544E4,8E0,3.9665E4,1.59E2,1.9876778E2,2.2702927E2,2.3765381E2,2.6730188E2,2.8794147E2,3.2375168E2,3.0687112E2,3.582419E2],"split_indices":[6,6,8,7,1,6,0,0,0,0,0,0,0,0,0],"split_type":[0,0,0,0,0,0,0,0,0,0,0,0,0,0,0],"sum_hessian":[1.36567E5,8.5117E4,5.145E4,3.5471E4,4.9646E4,4.104E4,1.041E4,1.5311E4,2.016E4,1.4163E4,3.5483E4,3.1956E4,9.084E3,1.652E3,8.758E3],"tree_param":{"num_deleted":"0","num_feature":"9","num_nodes":"15","size_leaf_vector":"1"}},{"base_weights":[2.6285287E4,2.381051E4,3.0378924E4,2.1268795E4,2.5626045E4,2.9121701E4,3.4108688E4,1.9779556E2,2.2560895E2,2.3527744E2,2.646289E2,2.7304288E2,3.0308994E2,3.0646393E2,3.5270926E2],"categories":[],"categories_nodes":[],"categories_segments":[],"categories_sizes":[],"default_left":[1,0,1,0,0,0,0,0,0,0,0,0,0,0,0],"id":20,"left_children":[1,3,5,7,9,11,13,-1,-1,-1,-1,-1,-1,-1,-1],"loss_changes":[1.3828369E12,3.9223873E11,2.4026651E11,6.781141E10,8.6555754E10,8.2218844E10,5.108977E10,0E0,0E0,0E0,0E0,0E0,0E0,0E0,0E0],"parents":[2147483647,0,0,1,1,2,2,3,3,4,4,5,5,6,6],"right_children":[2,4,6,8,10,12,14,-1,-1,-1,-1,-1,-1,-1,-1],"split_conditions":[3.2949E4,2.8217E4,3.9911E4,2.5027E4,8E0,3.4461E4,1.72E2,1.9779556E2,2.2560895E2,2.3527744E2,2.646289E2,2.7304288E2,3.0308994E2,3.0646393E2,3.5270926E2],"split_indices":[6,6,7,6,1,8,0,0,0,0,0,0,0,0,0],"split_type":[0,0,0,0,0,0,0,0,0,0,0,0,0,0,0],"sum_hessian":[1.36567E5,8.5117E4,5.145E4,3.5471E4,4.9646E4,3.8486E4,1.2964E4,1.6486E4,1.8985E4,1.4163E4,3.5483E4,1.5217E4,2.3269E4,3.265E3,9.699E3],"tree_param":{"num_deleted":"0","num_feature":"9","num_nodes":"15","size_leaf_vector":"1"}},{"base_weights":[2.602245E4,2.3275504E4,2.9638998E4,2.0468812E4,2.476977E4,2.843568E4,3.3620004E4,1.8937529E2,2.1444931E2,2.3001933E2,2.570466E2,2.6716873E2,2.971486E2,3.0270224E2,3.4804706E2],"categories":[],"categories_nodes":[],"categories_segments":[],"categories_sizes":[],"default_left":[1,0,1,0,0,0,0,0,0,0,0,0,0,0,0],"id":21,"left_children":[1,3,5,7,9,11,13,-1,-1,-1,-1,-1,-1,-1,-1],"loss_changes":[1.3560353E12,3.250292E11,2.814378E11,3.99109E10,8.311433E10,9.87465E10,5.322257E10,0E0,0E0,0E0,0E0,0E0,0E0,0E0,0E0],"parents":[2147483647,0,0,1,1,2,2,3,3,4,4,5,5,6,6],"right_children":[2,4,6,8,10,12,14,-1,-1,-1,-1,-1,-1,-1,-1],"split_conditions":[3.2094E4,2.6911E4,3.974E4,2.4367E4,8E0,3.439E4,1.72E2,1.8937529E2,2.1444931E2,2.3001933E2,2.570466E2,2.6716873E2,2.971486E2,3.0270224E2,3.4804706E2],"split_indices":[6,6,7,7,1,8,0,0,0,0,0,0,0,0,0],"split_type":[0,0,0,0,0,0,0,0,0,0,0,0,0,0,0],"sum_hessian":[1.36567E5,7.7619E4,5.8948E4,2.6972E4,5.0647E4,4.5272E4,1.3676E4,1.0508E4,1.6464E4,1.7528E4,3.3119E4,1.9326E4,2.5946E4,3.58E3,1.0096E4],"tree_param":{"num_deleted":"0","num_feature":"9","num_nodes":"15","size_leaf_vector":"1"}},{"base_weights":[2.576224E4,2.339175E4,2.9872035E4,2.0871207E4,2.5179957E4,2.8787096E4,3.402115E4,1.9278413E2,2.2058986E2,2.308817E2,2.5992325E2,2.812382E2,3.1950146E2,2.969368E2,3.4792255E2],"categories":[],"categories_nodes":[],"categories_segments":[],"categories_sizes":[],"default_left":[1,0,1,0,0,0,0,0,0,0,0,0,0,0,0],"id":22,"left_children":[1,3,5,7,9,11,13,-1,-1,-1,-1,-1,-1,-1,-1],"loss_changes":[1.3297789E12,3.8987314E11,2.2388356E11,6.7593306E10,8.5494596E10,8.219368E10,3.3500955E10,0E0,0E0,0E0,0E0,0E0,0E0,0E0,0E0],"parents":[2147483647,0,0,1,1,2,2,3,3,4,4,5,5,6,6],"right_children":[2,4,6,8,10,12,14,-1,-1,-1,-1,-1,-1,-1,-1],"split_conditions":[3.3137E4,2.829E4,4.0694E4,2.5544E4,8E0,4.0807E4,1.58E2,1.9278413E2,2.2058986E2,2.308817E2,2.5992325E2,2.812382E2,3.1950146E2,2.969368E2,3.4792255E2],"split_indices":[6,6,8,7,1,6,0,0,0,0,0,0,0,0,0],"split_type":[0,0,0,0,0,0,0,0,0,0,0,0,0,0,0],"sum_hessian":[1.36567E5,8.6615E4,4.9952E4,3.5952E4,5.0663E4,3.9604E4,1.0348E4,1.5365E4,2.0587E4,1.418E4,3.6483E4,3.2747E4,6.857E3,1.571E3,8.777E3],"tree_param":{"num_deleted":"0","num_feature":"9","num_nodes":"15","size_leaf_vector":"1"}},{"base_weights":[2.5504635E4,2.2752533E4,2.8975234E4,1.9978629E4,2.4187326E4,2.7734977E4,3.2729898E4,1.8348318E2,2.083948E2,2.2497667E2,2.5117648E2,2.6537372E2,2.9465814E2,2.9593094E2,3.387659E2],"categories":[],"categories_nodes":[],"categories_segments":[],"categories_sizes":[],"default_left":[1,0,0,0,0,1,0,0,0,0,0,0,0,0,0],"id":23,"left_children":[1,3,5,7,9,11,13,-1,-1,-1,-1,-1,-1,-1,-1],"loss_changes":[1.3037575E12,3.0268195E11,2.803431E11,3.6069966E10,7.834331E10,9.333794E10,5.2919534E10,0E0,0E0,0E0,0E0,0E0,0E0,0E0,0E0],"parents":[2147483647,0,0,1,1,2,2,3,3,4,4,5,5,6,6],"right_children":[2,4,6,8,10,12,14,-1,-1,-1,-1,-1,-1,-1,-1],"split_conditions":[3.1947E4,2.6754E4,3.9837E4,2.3349E4,8E0,3.5133E4,1.72E2,1.8348318E2,2.083948E2,2.2497667E2,2.5117648E2,2.6537372E2,2.9465814E2,2.9593094E2,3.387659E2],"split_indices":[6,6,6,6,1,7,0,0,0,0,0,0,0,0,0],"split_type":[0,0,0,0,0,0,0,0,0,0,0,0,0,0,0],"sum_hessian":[1.36567E5,7.6172E4,6.0395E4,2.5973E4,5.0199E4,4.5405E4,1.499E4,8.983E3,1.699E4,1.7834E4,3.2365E4,2.6846E4,1.8559E4,4.02E3,1.097E4],"tree_param":{"num_deleted":"0","num_feature":"9","num_nodes":"15","size_leaf_vector":"1"}},{"base_weights":[2.5249604E4,2.2925031E4,2.9279787E4,2.0452484E4,2.4679188E4,2.821167E4,3.3364574E4,1.924394E2,2.19688E2,2.2360262E2,2.538557E2,2.764078E2,3.1744437E2,2.9107858E2,3.4123087E2],"categories":[],"categories_nodes":[],"categories_segments":[],"categories_sizes":[],"default_left":[1,0,1,1,0,0,0,0,0,0,0,0,0,0,0],"id":24,"left_children":[1,3,5,7,9,11,13,-1,-1,-1,-1,-1,-1,-1,-1],"loss_changes":[1.2787594E12,3.751637E11,2.170049E11,6.54626E10,8.2424365E10,7.899762E10,3.2420921E10,0E0,0E0,0E0,0E0,0E0,0E0,0E0,0E0],"parents":[2147483647,0,0,1,1,2,2,3,3,4,4,5,5,6,6],"right_children":[2,4,6,8,10,12,14,-1,-1,-1,-1,-1,-1,-1,-1],"split_conditions":[3.3137E4,2.829E4,4.0694E4,2.6021E4,7E0,4.1698E4,1.58E2,1.924394E2,2.19688E2,2.2360262E2,2.538557E2,2.764078E2,3.1744437E2,2.9107858E2,3.4123087E2],"split_indices":[6,6,8,7,1,6,0,0,0,0,0,0,0,0,0],"split_type":[0,0,0,0,0,0,0,0,0,0,0,0,0,0,0],"sum_hessian":[1.36567E5,8.6615E4,4.9952E4,3.5952E4,5.0663E4,3.9604E4,1.0348E4,2.0014E4,1.5938E4,1.1837E4,3.8826E4,3.4102E4,5.502E3,1.571E3,8.777E3],"tree_param":{"num_deleted":"0","num_feature":"9","num_nodes":"15","size_leaf_vector":"1"}},{"base_weights":[2.4997123E4,2.2414604E4,2.8553281E4,1.9970322E4,2.4028605E4,2.737282E4,3.2349338E4,1.829279E2,2.0933754E2,2.2215355E2,2.4872246E2,2.568038E2,2.859586E2,2.9082755E2,3.350131E2],"categories":[],"categories_nodes":[],"categories_segments":[],"categories_sizes":[],"default_left":[1,0,1,0,0,0,0,0,0,0,0,0,0,0,0],"id":25,"left_children":[1,3,5,7,9,11,13,-1,-1,-1,-1,-1,-1,-1,-1],"loss_changes":[1.2535852E12,3.1164937E11,2.56553E11,5.0482643E10,7.233706E10,8.9986695E10,5.0284462E10,0E0,0E0,0E0,0E0,0E0,0E0,0E0,0E0],"parents":[2147483647,0,0,1,1,2,2,3,3,4,4,5,5,6,6],"right_children":[2,4,6,8,10,12,14,-1,-1,-1,-1,-1,-1,-1,-1],"split_conditions":[3.2253E4,2.7628E4,3.974E4,2.3929E4,8E0,3.439E4,1.72E2,1.829279E2,2.0933754E2,2.2215355E2,2.4872246E2,2.568038E2,2.859586E2,2.9082755E2,3.350131E2],"split_indices":[6,6,7,6,1,8,0,0,0,0,0,0,0,0,0],"split_type":[0,0,0,0,0,0,0,0,0,0,0,0,0,0,0],"sum_hessian":[1.36567E5,7.9118E4,5.7449E4,3.1471E4,4.7647E4,4.3828E4,1.3621E4,1.1488E4,1.9983E4,1.5138E4,3.2509E4,1.8395E4,2.5433E4,3.558E3,1.0063E4],"tree_param":{"num_deleted":"0","num_feature":"9","num_nodes":"15","size_leaf_vector":"1"}},{"base_weights":[2.4747166E4,2.2467643E4,2.869925E4,2.0043838E4,2.4187219E4,2.7648324E4,3.2718307E4,1.8286934E2,2.1057056E2,2.1910956E2,2.4880608E2,2.7085956E2,3.1128387E2,2.8619516E2,3.3481284E2],"categories":[],"categories_nodes":[],"categories_segments":[],"categories_sizes":[],"default_left":[1,0,1,0,0,0,0,0,0,0,0,0,0,0,0],"id":26,"left_children":[1,3,5,7,9,11,13,-1,-1,-1,-1,-1,-1,-1,-1],"loss_changes":[1.229686E12,3.605256E11,2.100801E11,6.3616057E10,7.941915E10,7.6665586E10,3.14059E10,0E0,0E0,0E0,0E0,0E0,0E0,0E0,0E0],"parents":[2147483647,0,0,1,1,2,2,3,3,4,4,5,5,6,6],"right_children":[2,4,6,8,10,12,14,-1,-1,-1,-1,-1,-1,-1,-1],"split_conditions":[3.3137E4,2.829E4,4.0694E4,2.4916E4,7E0,4.1698E4,1.59E2,1.8286934E2,2.1057056E2,2.1910956E2,2.4880608E2,2.7085956E2,3.1128387E2,2.8619516E2,3.3481284E2],"split_indices":[6,6,8,7,1,6,0,0,0,0,0,0,0,0,0],"split_type":[0,0,0,0,0,0,0,0,0,0,0,0,0,0,0],"sum_hessian":[1.36567E5,8.6615E4,4.9952E4,3.5952E4,5.0663E4,3.9604E4,1.0348E4,1.3157E4,2.2795E4,1.1837E4,3.8826E4,3.4102E4,5.502E3,1.63E3,8.718E3],"tree_param":{"num_deleted":"0","num_feature":"9","num_nodes":"15","size_leaf_vector":"1"}},{"base_weights":[2.4499709E4,2.1833684E4,2.7812957E4,1.9141572E4,2.3198605E4,2.6681086E4,3.16914E4,1.7486906E2,1.9929463E2,2.1589517E2,2.4099918E2,2.5013004E2,2.7911758E2,2.8496216E2,3.28304E2],"categories":[],"categories_nodes":[],"categories_segments":[],"categories_sizes":[],"default_left":[1,0,1,0,0,0,0,0,0,0,0,0,0,0,0],"id":27,"left_children":[1,3,5,7,9,11,13,-1,-1,-1,-1,-1,-1,-1,-1],"loss_changes":[1.2057198E12,2.7764195E11,2.6645155E11,3.2851886E10,7.230561E10,9.607263E10,4.9105863E10,0E0,0E0,0E0,0E0,0E0,0E0,0E0,0E0],"parents":[2147483647,0,0,1,1,2,2,3,3,4,4,5,5,6,6],"right_children":[2,4,6,8,10,12,14,-1,-1,-1,-1,-1,-1,-1,-1],"split_conditions":[3.1897E4,2.6666E4,3.974E4,2.3672E4,8E0,3.4256E4,1.72E2,1.7486906E2,1.9929463E2,2.1589517E2,2.4099918E2,2.5013004E2,2.7911758E2,2.8496216E2,3.28304E2],"split_indices":[6,6,7,7,1,8,0,0,0,0,0,0,0,0,0],"split_type":[0,0,0,0,0,0,0,0,0,0,0,0,0,0,0],"sum_hessian":[1.36567E5,7.5679E4,6.0888E4,2.5466E4,5.0213E4,4.7139E4,1.3749E4,8.222E3,1.7244E4,1.8037E4,3.2176E4,2.0022E4,2.7117E4,3.62E3,1.0129E4],"tree_param":{"num_deleted":"0","num_feature":"9","num_nodes":"15","size_leaf_vector":"1"}},{"base_weights":[2.4254727E4,2.2018953E4,2.813096E4,1.9641592E4,2.370558E4,2.7096988E4,3.2085193E4,1.8555281E2,2.1231837E2,2.1470595E2,2.4386394E2,2.6344257E2,2.962281E2,2.7962692E2,3.2819812E2],"categories":[],"categories_nodes":[],"categories_segments":[],"categories_sizes":[],"default_left":[1,0,1,1,0,0,0,0,0,0,0,0,0,0,0],"id":28,"left_children":[1,3,5,7,9,11,13,-1,-1,-1,-1,-1,-1,-1,-1],"loss_changes":[1.1829363E12,3.4683958E11,2.0336502E11,6.171499E10,7.656702E10,7.45202E10,3.0423384E10,0E0,0E0,0E0,0E0,0E0,0E0,0E0,0E0],"parents":[2147483647,0,0,1,1,2,2,3,3,4,4,5,5,6,6],"right_children":[2,4,6,8,10,12,14,-1,-1,-1,-1,-1,-1,-1,-1],"split_conditions":[3.3137E4,2.829E4,4.0694E4,2.6375E4,7E0,3.9665E4,1.58E2,1.8555281E2,2.1231837E2,2.1470595E2,2.4386394E2,2.6344257E2,2.962281E2,2.7962692E2,3.2819812E2],"split_indices":[6,6,8,7,1,6,0,0,0,0,0,0,0,0,0],"split_type":[0,0,0,0,0,0,0,0,0,0,0,0,0,0,0],"sum_hessian":[1.36567E5,8.6615E4,4.9952E4,3.5952E4,5.0663E4,3.9604E4,1.0348E4,2.1368E4,1.4584E4,1.1837E4,3.8826E4,3.052E4,9.084E3,1.571E3,8.777E3],"tree_param":{"num_deleted":"0","num_feature":"9","num_nodes":"15","size_leaf_vector":"1"}},{"base_weights":[2.4012195E4,2.1746078E4,2.776068E4,1.9418115E4,2.3408934E4,2.6590166E4,3.123324E4,1.770348E2,2.0405751E2,2.1480345E2,2.4178099E2,2.4580869E2,2.7540338E2,2.801429E2,3.231384E2],"categories":[],"categories_nodes":[],"categories_segments":[],"categories_sizes":[],"default_left":[1,0,1,0,0,0,0,0,0,0,0,0,0,0,0],"id":29,"left_children":[1,3,5,7,9,11,13,-1,-1,-1,-1,-1,-1,-1,-1],"loss_changes":[1.1594734E12,3.2903895E11,2.0829753E11,5.971011E10,7.312559E10,7.2800535E10,4.4193284E10,0E0,0E0,0E0,0E0,0E0,0E0,0E0,0E0],"parents":[2147483647,0,0,1,1,2,2,3,3,4,4,5,5,6,6],"right_children":[2,4,6,8,10,12,14,-1,-1,-1,-1,-1,-1,-1,-1],"split_conditions":[3.2949E4,2.8217E4,3.9911E4,2.4266E4,8E0,3.3589E4,1.72E2,1.770348E2,2.0405751E2,2.1480345E2,2.4178099E2,2.4580869E2,2.7540338E2,2.801429E2,3.231384E2],"split_indices":[6,6,7,6,1,8,0,0,0,0,0,0,0,0,0],"split_type":[0,0,0,0,0,0,0,0,0,0,0,0,0,0,0],"sum_hessian":[1.36567E5,8.5117E4,5.145E4,3.5471E4,4.9646E4,3.8486E4,1.2964E4,1.2971E4,2.25E4,1.4163E4,3.5483E4,1.2365E4,2.6121E4,3.265E3,9.699E3],"tree_param":{"num_deleted":"0","num_feature":"9","num_nodes":"15","size_leaf_vector":"1"}},{"base_weights":[2.3772088E4,2.1182986E4,2.6989736E4,1.856673E4,2.2509447E4,2.5529383E4,2.9867791E4,1.7046019E2,1.9394409E2,2.0948453E2,2.3383821E2,2.3980678E2,2.6624335E2,2.8519025E2,3.232278E2],"categories":[],"categories_nodes":[],"categories_segments":[],"categories_sizes":[],"default_left":[1,0,0,0,0,0,1,0,0,0,0,0,0,0,0],"id":30,"left_children":[1,3,5,7,9,11,13,-1,-1,-1,-1,-1,-1,-1,-1],"loss_changes":[1.1371513E12,2.622195E11,2.551521E11,3.1724667E10,6.804839E10,6.7868033E10,6.6924315E10,0E0,0E0,0E0,0E0,0E0,0E0,0E0,0E0],"parents":[2147483647,0,0,1,1,2,2,3,3,4,4,5,5,6,6],"right_children":[2,4,6,8,10,12,14,-1,-1,-1,-1,-1,-1,-1,-1],"split_conditions":[3.1897E4,2.6666E4,3.8216E4,2.3349E4,8E0,3.351E4,4.0894E4,1.7046019E2,1.9394409E2,2.0948453E2,2.3383821E2,2.3980678E2,2.6624335E2,2.8519025E2,3.232278E2],"split_indices":[6,6,6,6,1,7,8,0,0,0,0,0,0,0,0],"split_type":[0,0,0,0,0,0,0,0,0,0,0,0,0,0,0],"sum_hessian":[1.36567E5,7.5679E4,6.0888E4,2.5466E4,5.0213E4,4.0399E4,2.0489E4,8.983E3,1.6483E4,1.8037E4,3.2176E4,1.6742E4,2.3657E4,1.3232E4,7.257E3],"tree_param":{"num_deleted":"0","num_feature":"9","num_nodes":"15","size_leaf_vector":"1"}},{"base_weights":[2.353438E4,2.136382E4,2.7297553E4,1.918699E4,2.3101793E4,2.617535E4,3.0772973E4,1.7658945E2,2.0332655E2,2.0831505E2,2.3763371E2,2.4098158E2,2.6992184E2,2.711871E2,3.162396E2],"categories":[],"categories_nodes":[],"categories_segments":[],"categories_sizes":[],"default_left":[1,0,1,0,0,0,0,0,0,0,0,0,0,0,0],"id":31,"left_children":[1,3,5,7,9,11,13,-1,-1,-1,-1,-1,-1,-1,-1],"loss_changes":[1.1149215E12,3.27248E11,1.9401592E11,6.6968355E10,7.1835845E10,6.343046E10,3.7041996E10,0E0,0E0,0E0,0E0,0E0,0E0,0E0,0E0],"parents":[2147483647,0,0,1,1,2,2,3,3,4,4,5,5,6,6],"right_children":[2,4,6,8,10,12,14,-1,-1,-1,-1,-1,-1,-1,-1],"split_conditions":[3.3137E4,2.8642E4,3.9744E4,2.5027E4,7E0,3.3036E4,1.59E2,1.7658945E2,2.0332655E2,2.0831505E2,2.3763371E2,2.4098158E2,2.6992184E2,2.711871E2,3.162396E2],"split_indices":[6,6,8,6,1,8,0,0,0,0,0,0,0,0,0],"split_type":[0,0,0,0,0,0,0,0,0,0,0,0,0,0,0],"sum_hessian":[1.36567E5,8.6615E4,4.9952E4,3.8458E4,4.8157E4,3.7766E4,1.2186E4,1.6486E4,2.1972E4,1.0874E4,3.7283E4,1.0668E4,2.7098E4,2.308E3,9.878E3],"tree_param":{"num_deleted":"0","num_feature":"9","num_nodes":"15","size_leaf_vector":"1"}},{"base_weights":[2.329905E4,2.0664855E4,2.6340291E4,1.8117863E4,2.1944463E4,2.4932904E4,2.9285246E4,1.6573363E2,1.8888577E2,2.0458339E2,2.2826245E2,2.3452122E2,2.6037454E2,2.796529E2,3.1687793E2],"categories":[],"categories_nodes":[],"categories_segments":[],"categories_sizes":[],"default_left":[1,0,0,0,0,0,1,0,0,0,0,0,0,0,0],"id":32,"left_children":[1,3,5,7,9,11,13,-1,-1,-1,-1,-1,-1,-1,-1],"loss_changes":[1.09353894E12,2.3812742E11,2.6196784E11,2.8825879E10,6.3361253E10,6.954785E10,6.409421E10,0E0,0E0,0E0,0E0,0E0,0E0,0E0,0E0],"parents":[2147483647,0,0,1,1,2,2,3,3,4,4,5,5,6,6],"right_children":[2,4,6,8,10,12,14,-1,-1,-1,-1,-1,-1,-1,-1],"split_conditions":[3.1637E4,2.6503E4,3.8216E4,2.3672E4,8E0,3.351E4,4.0894E4,1.6573363E2,1.8888577E2,2.0458339E2,2.2826245E2,2.3452122E2,2.6037454E2,2.796529E2,3.1687793E2],"split_indices":[6,6,6,7,1,7,8,0,0,0,0,0,0,0,0],"split_type":[0,0,0,0,0,0,0,0,0,0,0,0,0,0,0],"sum_hessian":[1.36567E5,7.3185E4,6.3382E4,2.4478E4,4.8707E4,4.2893E4,2.0489E4,8.156E3,1.6322E4,1.8147E4,3.056E4,1.8335E4,2.4558E4,1.3232E4,7.257E3],"tree_param":{"num_deleted":"0","num_feature":"9","num_nodes":"15","size_leaf_vector":"1"}},{"base_weights":[2.3066074E4,2.0937613E4,2.6756256E4,1.8801475E4,2.26431E4,2.5606625E4,3.0061566E4,1.700298E2,1.9747513E2,2.0412306E2,2.3293172E2,2.4046652E2,2.6744052E2,2.690396E2,3.1116E2],"categories":[],"categories_nodes":[],"categories_segments":[],"categories_sizes":[],"default_left":[1,0,1,0,0,0,0,0,0,0,0,0,0,0,0],"id":33,"left_children":[1,3,5,7,9,11,13,-1,-1,-1,-1,-1,-1,-1,-1],"loss_changes":[1.07210605E12,3.1513064E11,1.8904567E11,6.5099792E10,6.9361205E10,6.513125E10,4.206153E10,0E0,0E0,0E0,0E0,0E0,0E0,0E0,0E0],"parents":[2147483647,0,0,1,1,2,2,3,3,4,4,5,5,6,6],"right_children":[2,4,6,8,10,12,14,-1,-1,-1,-1,-1,-1,-1,-1],"split_conditions":[3.3137E4,2.8642E4,3.9911E4,2.5274E4,7E0,3.4901E4,1.72E2,1.700298E2,1.9747513E2,2.0412306E2,2.3293172E2,2.4046652E2,2.6744052E2,2.690396E2,3.1116E2],"split_indices":[6,6,7,8,1,8,0,0,0,0,0,0,0,0,0],"split_type":[0,0,0,0,0,0,0,0,0,0,0,0,0,0,0],"sum_hessian":[1.36567E5,8.6615E4,4.9952E4,3.8458E4,4.8157E4,3.7068E4,1.2884E4,1.3263E4,2.5195E4,1.0874E4,3.7283E4,1.564E4,2.1428E4,3.232E3,9.652E3],"tree_param":{"num_deleted":"0","num_feature":"9","num_nodes":"15","size_leaf_vector":"1"}},{"base_weights":[2.2835428E4,2.0252412E4,2.5817578E4,1.7752234E4,2.1508502E4,2.4383787E4,2.8612287E4,1.6132368E2,1.8465167E2,2.0051962E2,2.2372733E2,2.2960172E2,2.5468425E2,2.7385617E2,3.1152795E2],"categories":[],"categories_nodes":[],"categories_segments":[],"categories_sizes":[],"default_left":[1,0,0,0,0,0,0,0,0,0,0,0,0,0,0],"id":34,"left_children":[1,3,5,7,9,11,13,-1,-1,-1,-1,-1,-1,-1,-1],"loss_changes":[1.0514617E12,2.294536E11,2.5327724E11,2.7972338E10,6.0863545E10,6.410784E10,6.610433E10,0E0,0E0,0E0,0E0,0E0,0E0,0E0,0E0],"parents":[2147483647,0,0,1,1,2,2,3,3,4,4,5,5,6,6],"right_children":[2,4,6,8,10,12,14,-1,-1,-1,-1,-1,-1,-1,-1],"split_conditions":[3.1637E4,2.6503E4,3.7974E4,2.299E4,8E0,3.351E4,4.3843E4,1.6132368E2,1.8465167E2,2.0051962E2,2.2372733E2,2.2960172E2,2.5468425E2,2.7385617E2,3.1152795E2],"split_indices":[6,6,6,6,1,7,6,0,0,0,0,0,0,0,0],"split_type":[0,0,0,0,0,0,0,0,0,0,0,0,0,0,0],"sum_hessian":[1.36567E5,7.3185E4,6.3382E4,2.4478E4,4.8707E4,4.1897E4,2.1485E4,7.488E3,1.699E4,1.8147E4,3.056E4,1.8127E4,2.377E4,1.4497E4,6.988E3],"tree_param":{"num_deleted":"0","num_feature":"9","num_nodes":"15","size_leaf_vector":"1"}},{"base_weights":[2.2607086E4,1.9307342E4,2.4896705E4,1.7342602E4,2.0530963E4,2.3483387E4,2.7953104E4,1.6026462E2,1.8108867E2,1.9382498E2,2.1430602E2,1.9946358E2,2.4109962E2,2.6731213E2,3.0583585E2],"categories":[],"categories_nodes":[],"categories_segments":[],"categories_sizes":[],"default_left":[0,0,1,0,0,0,1,0,0,0,0,0,0,0,0],"id":35,"left_children":[1,3,5,7,9,11,13,-1,-1,-1,-1,-1,-1,-1,-1],"loss_changes":[1.03131224E12,1.3414852E11,3.4759875E11,2.1371027E10,3.5200696E10,1.2170822E11,8.110316E10,0E0,0E0,0E0,0E0,0E0,0E0,0E0,0E0],"parents":[2147483647,0,0,1,1,2,2,3,3,4,4,5,5,6,6],"right_children":[2,4,6,8,10,12,14,-1,-1,-1,-1,-1,-1,-1,-1],"split_conditions":[3.0766E4,2.5999E4,3.7054E4,2.3672E4,2.9384E4,7E0,4.0894E4,1.6026462E2,1.8108867E2,1.9382498E2,2.1430602E2,1.9946358E2,2.4109962E2,2.6731213E2,3.0583585E2],"split_indices":[6,6,6,7,8,1,8,0,0,0,0,0,0,0,0],"split_type":[0,0,0,0,0,0,0,0,0,0,0,0,0,0,0],"sum_hessian":[1.36567E5,5.5947E4,8.062E4,2.1477E4,3.447E4,5.5134E4,2.5486E4,7.911E3,1.3566E4,1.5151E4,1.9319E4,8.302E3,4.6832E4,1.741E4,8.076E3],"tree_param":{"num_deleted":"0","num_feature":"9","num_nodes":"15","size_leaf_vector":"1"}},{"base_weights":[2.2381027E4,2.0409693E4,2.6144205E4,1.8237508E4,2.2041986E4,2.5093613E4,2.9542518E4,1.6481633E2,1.9161134E2,2.0068404E2,2.2752715E2,2.3660747E2,2.6308072E2,2.6215637E2,3.049139E2],"categories":[],"categories_nodes":[],"categories_segments":[],"categories_sizes":[],"default_left":[1,0,1,0,0,0,0,0,0,0,0,0,0,0,0],"id":36,"left_children":[1,3,5,7,9,11,13,-1,-1,-1,-1,-1,-1,-1,-1],"loss_changes":[1.0125847E12,3.173788E11,1.668578E11,6.2056825E10,7.131575E10,6.1790487E10,3.4178335E10,0E0,0E0,0E0,0E0,0E0,0E0,0E0,0E0],"parents":[2147483647,0,0,1,1,2,2,3,3,4,4,5,5,6,6],"right_children":[2,4,6,8,10,12,14,-1,-1,-1,-1,-1,-1,-1,-1],"split_conditions":[3.352E4,2.8642E4,4.0667E4,2.5274E4,8E0,3.5698E4,1.72E2,1.6481633E2,1.9161134E2,2.0068404E2,2.2752715E2,2.3660747E2,2.6308072E2,2.6215637E2,3.049139E2],"split_indices":[6,6,7,8,1,8,0,0,0,0,0,0,0,0,0],"split_type":[0,0,0,0,0,0,0,0,0,0,0,0,0,0,0],"sum_hessian":[1.36567E5,8.9624E4,4.6943E4,3.8458E4,5.1166E4,3.5864E4,1.1079E4,1.3263E4,2.5195E4,1.3555E4,3.7611E4,1.6462E4,1.9402E4,2.465E3,8.614E3],"tree_param":{"num_deleted":"0","num_feature":"9","num_nodes":"15","size_leaf_vector":"1"}},{"base_weights":[2.215723E4,1.953465E4,2.4929643E4,1.7181617E4,2.0755172E4,2.3568043E4,2.7773797E4,1.628499E2,1.8402501E2,1.9422234E2,2.1644492E2,2.2622351E2,2.5155357E2,2.6568375E2,3.0270352E2],"categories":[],"categories_nodes":[],"categories_segments":[],"categories_sizes":[],"default_left":[1,0,0,1,0,1,0,0,0,0,0,0,0,0,0],"id":37,"left_children":[1,3,5,7,9,11,13,-1,-1,-1,-1,-1,-1,-1,-1],"loss_changes":[9.924814E11,2.0120915E11,2.5642297E11,2.5947013E10,5.435818E10,6.6827846E10,6.3855133E10,0E0,0E0,0E0,0E0,0E0,0E0,0E0,0E0],"parents":[2147483647,0,0,1,1,2,2,3,3,4,4,5,5,6,6],"right_children":[2,4,6,8,10,12,14,-1,-1,-1,-1,-1,-1,-1,-1],"split_conditions":[3.1333E4,2.6415E4,3.7974E4,2.4916E4,3.0432E4,3.4753E4,4.3843E4,1.628499E2,1.8402501E2,1.9422234E2,2.1644492E2,2.2622351E2,2.5155357E2,2.6568375E2,3.0270352E2],"split_indices":[6,6,6,7,8,7,6,0,0,0,0,0,0,0,0],"split_type":[0,0,0,0,0,0,0,0,0,0,0,0,0,0,0],"sum_hessian":[1.36567E5,7.0184E4,6.6383E4,2.3976E4,4.6208E4,4.4898E4,2.1485E4,1.3832E4,1.0144E4,1.8501E4,2.7707E4,2.8145E4,1.6753E4,1.4497E4,6.988E3],"tree_param":{"num_deleted":"0","num_feature":"9","num_nodes":"15","size_leaf_vector":"1"}},{"base_weights":[2.1935672E4,2.0002307E4,2.5626365E4,1.7872047E4,2.1603098E4,2.4645914E4,2.9159863E4,1.6778E2,1.9317345E2,1.9654697E2,2.2304759E2,2.4106084E2,2.770717E2,2.5334575E2,2.9857233E2],"categories":[],"categories_nodes":[],"categories_segments":[],"categories_sizes":[],"default_left":[1,0,1,1,0,0,0,0,0,0,0,0,0,0,0],"id":38,"left_children":[1,3,5,7,9,11,13,-1,-1,-1,-1,-1,-1,-1,-1],"loss_changes":[9.739635E11,3.0524467E11,1.6191481E11,6.0487107E10,6.95143E10,6.007082E10,2.6429358E10,0E0,0E0,0E0,0E0,0E0,0E0,0E0,0E0],"parents":[2147483647,0,0,1,1,2,2,3,3,4,4,5,5,6,6],"right_children":[2,4,6,8,10,12,14,-1,-1,-1,-1,-1,-1,-1,-1],"split_conditions":[3.352E4,2.8642E4,4.0694E4,2.6375E4,8E0,4.1698E4,1.59E2,1.6778E2,1.9317345E2,1.9654697E2,2.2304759E2,2.4106084E2,2.770717E2,2.5334575E2,2.9857233E2],"split_indices":[6,6,8,7,1,6,0,0,0,0,0,0,0,0,0],"split_type":[0,0,0,0,0,0,0,0,0,0,0,0,0,0,0],"sum_hessian":[1.36567E5,8.9624E4,4.6943E4,3.8458E4,5.1166E4,3.6753E4,1.019E4,2.1896E4,1.6562E4,1.3555E4,3.7611E4,3.1251E4,5.502E3,1.577E3,8.613E3],"tree_param":{"num_deleted":"0","num_feature":"9","num_nodes":"15","size_leaf_vector":"1"}},{"base_weights":[2.1716328E4,1.8540326E4,2.3920088E4,1.6646516E4,1.9719773E4,2.2538395E4,2.6824861E4,1.5293845E2,1.7369426E2,1.8608409E2,2.0590355E2,1.910112E2,2.3151625E2,2.5644382E2,2.9409192E2],"categories":[],"categories_nodes":[],"categories_segments":[],"categories_sizes":[],"default_left":[0,0,1,0,0,0,1,0,0,0,0,0,0,0,0],"id":39,"left_children":[1,3,5,7,9,11,13,-1,-1,-1,-1,-1,-1,-1,-1],"loss_changes":[9.554205E11,1.24640035E11,3.229656E11,2.073664E10,3.2968278E10,1.14728894E11,7.851108E10,0E0,0E0,0E0,0E0,0E0,0E0,0E0,0E0],"parents":[2147483647,0,0,1,1,2,2,3,3,4,4,5,5,6,6],"right_children":[2,4,6,8,10,12,14,-1,-1,-1,-1,-1,-1,-1,-1],"split_conditions":[3.0766E4,2.5999E4,3.6948E4,2.299E4,2.9384E4,7E0,4.0894E4,1.5293845E2,1.7369426E2,1.8608409E2,2.0590355E2,1.910112E2,2.3151625E2,2.5644382E2,2.9409192E2],"split_indices":[6,6,6,6,8,1,8,0,0,0,0,0,0,0,0],"split_type":[0,0,0,0,0,0,0,0,0,0,0,0,0,0,0],"sum_hessian":[1.36567E5,5.5947E4,8.062E4,2.1477E4,3.447E4,5.4639E4,2.5981E4,7.488E3,1.3989E4,1.5151E4,1.9319E4,8.277E3,4.6362E4,1.7842E4,8.139E3],"tree_param":{"num_deleted":"0","num_feature":"9","num_nodes":"15","size_leaf_vector":"1"}},{"base_weights":[2.1499178E4,1.952612E4,2.4980203E4,1.739204E4,2.1023836E4,2.3880695E4,2.8107467E4,1.6387813E2,1.8862173E2,1.8999947E2,2.163553E2,2.197771E2,2.4736684E2,2.5072981E2,2.9119614E2],"categories":[],"categories_nodes":[],"categories_segments":[],"categories_sizes":[],"default_left":[1,0,1,1,0,0,0,0,0,0,0,0,0,0,0],"id":40,"left_children":[1,3,5,7,9,11,13,-1,-1,-1,-1,-1,-1,-1,-1],"loss_changes":[9.3749405E11,2.7824593E11,1.6918983E11,5.2770636E10,6.299425E10,5.900547E10,3.8720766E10,0E0,0E0,0E0,0E0,0E0,0E0,0E0,0E0],"parents":[2147483647,0,0,1,1,2,2,3,3,4,4,5,5,6,6],"right_children":[2,4,6,8,10,12,14,-1,-1,-1,-1,-1,-1,-1,-1],"split_conditions":[3.3211E4,2.829E4,3.9911E4,2.6375E4,7E0,3.3589E4,1.72E2,1.6387813E2,1.8862173E2,1.8999947E2,2.163553E2,2.197771E2,2.4736684E2,2.5072981E2,2.9119614E2],"split_indices":[6,6,7,7,1,8,0,0,0,0,0,0,0,0,0],"split_type":[0,0,0,0,0,0,0,0,0,0,0,0,0,0,0],"sum_hessian":[1.36567E5,8.7167E4,4.94E4,3.5952E4,5.1215E4,3.6556E4,1.2844E4,2.1368E4,1.4584E4,1.1894E4,3.9321E4,1.135E4,2.5206E4,3.219E3,9.625E3],"tree_param":{"num_deleted":"0","num_feature":"9","num_nodes":"15","size_leaf_vector":"1"}},{"base_weights":[2.12842E4,1.8168613E4,2.3446035E4,1.6310376E4,1.9325908E4,2.2108158E4,2.6339293E4,1.4974835E2,1.7024141E2,1.8232246E2,2.0182626E2,1.8715094E2,2.2709239E2,2.5282764E2,2.9132022E2],"categories":[],"categories_nodes":[],"categories_segments":[],"categories_sizes":[],"default_left":[0,0,1,0,0,0,0,0,0,0,0,0,0,0,0],"id":41,"left_children":[1,3,5,7,9,11,13,-1,-1,-1,-1,-1,-1,-1,-1],"loss_changes":[9.194124E11,1.2000323E11,3.114858E11,2.0219167E10,3.192914E10,1.1202357E11,7.446567E10,0E0,0E0,0E0,0E0,0E0,0E0,0E0,0E0],"parents":[2147483647,0,0,1,1,2,2,3,3,4,4,5,5,6,6],"right_children":[2,4,6,8,10,12,14,-1,-1,-1,-1,-1,-1,-1,-1],"split_conditions":[3.0766E4,2.5999E4,3.7054E4,2.299E4,2.9384E4,7E0,4.3843E4,1.4974835E2,1.7024141E2,1.8232246E2,2.0182626E2,1.8715094E2,2.2709239E2,2.5282764E2,2.9132022E2],"split_indices":[6,6,6,6,8,1,6,0,0,0,0,0,0,0,0],"split_type":[0,0,0,0,0,0,0,0,0,0,0,0,0,0,0],"sum_hessian":[1.36567E5,5.5947E4,8.062E4,2.1477E4,3.447E4,5.5134E4,2.5486E4,7.488E3,1.3989E4,1.5151E4,1.9319E4,8.302E3,4.6832E4,1.8498E4,6.988E3],"tree_param":{"num_deleted":"0","num_feature":"9","num_nodes":"15","size_leaf_vector":"1"}},{"base_weights":[2.107137E4,1.9210166E4,2.4624309E4,1.7163395E4,2.0748219E4,2.3616967E4,2.7882768E4,1.5472926E2,1.805263E2,1.8872345E2,2.1423763E2,2.2236671E2,2.4786897E2,2.4681516E2,2.879587E2],"categories":[],"categories_nodes":[],"categories_segments":[],"categories_sizes":[],"default_left":[1,0,1,0,0,0,0,0,0,0,0,0,0,0,0],"id":42,"left_children":[1,3,5,7,9,11,13,-1,-1,-1,-1,-1,-1,-1,-1],"loss_changes":[9.026184E11,2.8179012E11,1.5342764E11,5.753222E10,6.4437092E10,5.7367593E10,3.167748E10,0E0,0E0,0E0,0E0,0E0,0E0,0E0,0E0],"parents":[2147483647,0,0,1,1,2,2,3,3,4,4,5,5,6,6],"right_children":[2,4,6,8,10,12,14,-1,-1,-1,-1,-1,-1,-1,-1],"split_conditions":[3.352E4,2.8642E4,4.0667E4,2.5274E4,8E0,3.5698E4,1.72E2,1.5472926E2,1.805263E2,1.8872345E2,2.1423763E2,2.2236671E2,2.4786897E2,2.4681516E2,2.879587E2],"split_indices":[6,6,7,8,1,8,0,0,0,0,0,0,0,0,0],"split_type":[0,0,0,0,0,0,0,0,0,0,0,0,0,0,0],"sum_hessian":[1.36567E5,8.9624E4,4.6943E4,3.8458E4,5.1166E4,3.5864E4,1.1079E4,1.3263E4,2.5195E4,1.3555E4,3.7611E4,1.6462E4,1.9402E4,2.465E3,8.614E3],"tree_param":{"num_deleted":"0","num_feature":"9","num_nodes":"15","size_leaf_vector":"1"}},{"base_weights":[2.0860668E4,1.8592951E4,2.3720426E4,1.6266485E4,1.9761023E4,2.2575055E4,2.6769979E4,1.4763863E2,1.6982042E2,1.835618E2,2.0536539E2,2.0877736E2,2.3471342E2,2.5562895E2,2.9054932E2],"categories":[],"categories_nodes":[],"categories_segments":[],"categories_sizes":[],"default_left":[1,0,1,0,0,0,0,0,0,0,0,0,0,0,0],"id":43,"left_children":[1,3,5,7,9,11,13,-1,-1,-1,-1,-1,-1,-1,-1],"loss_changes":[8.8522044E11,2.0667643E11,2.1035273E11,2.713138E10,5.486569E10,6.630985E10,4.4723864E10,0E0,0E0,0E0,0E0,0E0,0E0,0E0,0E0],"parents":[2147483647,0,0,1,1,2,2,3,3,4,4,5,5,6,6],"right_children":[2,4,6,8,10,12,14,-1,-1,-1,-1,-1,-1,-1,-1],"split_conditions":[3.1947E4,2.6666E4,3.8276E4,2.3672E4,2.9905E4,3.302E4,4.2284E4,1.4763863E2,1.6982042E2,1.835618E2,2.0536539E2,2.0877736E2,2.3471342E2,2.5562895E2,2.9054932E2],"split_indices":[6,6,8,7,7,7,7,0,0,0,0,0,0,0,0],"split_type":[0,0,0,0,0,0,0,0,0,0,0,0,0,0,0],"sum_hessian":[1.36567E5,7.6172E4,6.0395E4,2.5466E4,5.0706E4,4.3911E4,1.6484E4,8.222E3,1.7244E4,1.8044E4,3.2662E4,1.5183E4,2.8728E4,1.0794E4,5.69E3],"tree_param":{"num_deleted":"0","num_feature":"9","num_nodes":"15","size_leaf_vector":"1"}},{"base_weights":[2.0652074E4,1.8913357E4,2.4313639E4,1.6819658E4,2.0400182E4,2.3353453E4,2.7570232E4,1.5157271E2,1.7694127E2,1.8497276E2,2.106373E2,2.2911943E2,2.6792627E2,2.3756787E2,2.8222076E2],"categories":[],"categories_nodes":[],"categories_segments":[],"categories_sizes":[],"default_left":[1,0,1,0,0,0,0,0,0,0,0,0,0,0,0],"id":44,"left_children":[1,3,5,7,9,11,13,-1,-1,-1,-1,-1,-1,-1,-1],"loss_changes":[8.689927E11,2.879243E11,1.3683707E11,5.563954E10,6.7977085E10,5.0954502E10,2.4202707E10,0E0,0E0,0E0,0E0,0E0,0E0,0E0,0E0],"parents":[2147483647,0,0,1,1,2,2,3,3,4,4,5,5,6,6],"right_children":[2,4,6,8,10,12,14,-1,-1,-1,-1,-1,-1,-1,-1],"split_conditions":[3.3932E4,2.8642E4,4.0694E4,2.5274E4,8E0,4.3157E4,1.58E2,1.5157271E2,1.7694127E2,1.8497276E2,2.106373E2,2.2911943E2,2.6792627E2,2.3756787E2,2.8222076E2],"split_indices":[6,6,8,8,1,6,0,0,0,0,0,0,0,0,0],"split_type":[0,0,0,0,0,0,0,0,0,0,0,0,0,0,0],"sum_hessian":[1.36567E5,9.2601E4,4.3966E4,3.8458E4,5.4143E4,3.3961E4,1.0005E4,1.3263E4,2.5195E4,1.4006E4,4.0137E4,3.0104E4,3.857E3,1.466E3,8.539E3],"tree_param":{"num_deleted":"0","num_feature":"9","num_nodes":"15","size_leaf_vector":"1"}},{"base_weights":[2.0445566E4,1.7446176E4,2.2526777E4,1.5469797E4,1.846079E4,2.125604E4,2.5373043E4,1.4203543E2,1.6125594E2,1.7117993E2,1.915427E2,1.79167E2,2.1852727E2,2.4130846E2,2.781851E2],"categories":[],"categories_nodes":[],"categories_segments":[],"categories_sizes":[],"default_left":[0,0,1,0,0,0,1,0,0,0,0,0,0,0,0],"id":45,"left_children":[1,3,5,7,9,11,13,-1,-1,-1,-1,-1,-1,-1,-1],"loss_changes":[8.521106E11,1.1190508E11,2.9105534E11,1.5536226E10,3.4092351E10,1.1067929E11,7.4906075E10,0E0,0E0,0E0,0E0,0E0,0E0,0E0,0E0],"parents":[2147483647,0,0,1,1,2,2,3,3,4,4,5,5,6,6],"right_children":[2,4,6,8,10,12,14,-1,-1,-1,-1,-1,-1,-1,-1],"split_conditions":[3.0766E4,2.5528E4,3.6629E4,2.2718E4,2.822E4,7E0,4.0894E4,1.4203543E2,1.6125594E2,1.7117993E2,1.915427E2,1.79167E2,2.1852727E2,2.4130846E2,2.781851E2],"split_indices":[6,6,7,6,8,1,8,0,0,0,0,0,0,0,0],"split_type":[0,0,0,0,0,0,0,0,0,0,0,0,0,0,0],"sum_hessian":[1.36567E5,5.5947E4,8.062E4,1.8984E4,3.6963E4,5.5742E4,2.4878E4,6.485E3,1.2499E4,1.2597E4,2.4366E4,8.455E3,4.7287E4,1.6505E4,8.373E3],"tree_param":{"num_deleted":"0","num_feature":"9","num_nodes":"15","size_leaf_vector":"1"}},{"base_weights":[2.0241121E4,1.8534033E4,2.383608E4,1.6591994E4,2.0072766E4,2.2863605E4,2.6933113E4,1.5500941E2,1.795165E2,1.7872552E2,2.0649179E2,2.1473181E2,2.3961111E2,2.3706384E2,2.7801218E2],"categories":[],"categories_nodes":[],"categories_segments":[],"categories_sizes":[],"default_left":[1,0,1,1,0,0,0,0,0,0,0,0,0,0,0],"id":46,"left_children":[1,3,5,7,9,11,13,-1,-1,-1,-1,-1,-1,-1,-1],"loss_changes":[8.376696E11,2.7638366E11,1.3180391E11,6.0457746E10,6.5150124E10,5.055709E10,2.87551E10,0E0,0E0,0E0,0E0,0E0,0E0,0E0,0E0],"parents":[2147483647,0,0,1,1,2,2,3,3,4,4,5,5,6,6],"right_children":[2,4,6,8,10,12,14,-1,-1,-1,-1,-1,-1,-1,-1],"split_conditions":[3.3932E4,2.8976E4,4.0872E4,2.6455E4,7E0,3.5698E4,1.72E2,1.5500941E2,1.795165E2,1.7872552E2,2.0649179E2,2.1473181E2,2.3961111E2,2.3706384E2,2.7801218E2],"split_indices":[6,6,7,7,1,8,0,0,0,0,0,0,0,0,0],"split_type":[0,0,0,0,0,0,0,0,0,0,0,0,0,0,0],"sum_hessian":[1.36567E5,9.2601E4,4.3966E4,4.0941E4,5.166E4,3.3466E4,1.05E4,2.2721E4,1.822E4,1.0731E4,4.0929E4,1.4772E4,1.8694E4,2.232E3,8.268E3],"tree_param":{"num_deleted":"0","num_feature":"9","num_nodes":"15","size_leaf_vector":"1"}},{"base_weights":[2.0038723E4,1.8348701E4,2.359774E4,1.6317665E4,1.9791025E4,2.2693668E4,2.6881154E4,1.4689969E2,1.717389E2,1.7943597E2,2.043523E2,2.2294456E2,2.6640723E2,2.3041312E2,2.7613147E2],"categories":[],"categories_nodes":[],"categories_segments":[],"categories_sizes":[],"default_left":[1,0,0,0,0,1,0,0,0,0,0,0,0,0,0],"id":47,"left_children":[1,3,5,7,9,11,13,-1,-1,-1,-1,-1,-1,-1,-1],"loss_changes":[8.2099726E11,2.7094575E11,1.2990598E11,5.3347353E10,6.407009E10,5.3737423E10,2.6028802E10,0E0,0E0,0E0,0E0,0E0,0E0,0E0,0E0],"parents":[2147483647,0,0,1,1,2,2,3,3,4,4,5,5,6,6],"right_children":[2,4,6,8,10,12,14,-1,-1,-1,-1,-1,-1,-1,-1],"split_conditions":[3.3932E4,2.8642E4,4.2222E4,2.5274E4,8E0,4.2983E4,1.65E2,1.4689969E2,1.717389E2,1.7943597E2,2.043523E2,2.2294456E2,2.6640723E2,2.3041312E2,2.7613147E2],"split_indices":[6,6,6,8,1,8,0,0,0,0,0,0,0,0,0],"split_type":[0,0,0,0,0,0,0,0,0,0,0,0,0,0,0],"sum_hessian":[1.36567E5,9.2601E4,4.3966E4,3.8458E4,5.4143E4,3.448E4,9.486E3,1.3263E4,2.5195E4,1.4006E4,4.0137E4,3.1319E4,3.161E3,1.524E3,7.962E3],"tree_param":{"num_deleted":"0","num_feature":"9","num_nodes":"15","size_leaf_vector":"1"}},{"base_weights":[1.9838348E4,1.7905287E4,2.2889264E4,1.5811444E4,1.916897E4,2.1881922E4,2.5976506E4,1.482472E2,1.7035973E2,1.7804535E2,1.9924059E2,2.0123683E2,2.2743199E2,2.3131454E2,2.693563E2],"categories":[],"categories_nodes":[],"categories_segments":[],"categories_sizes":[],"default_left":[1,0,1,1,0,0,0,0,0,0,0,0,0,0,0],"id":48,"left_children":[1,3,5,7,9,11,13,-1,-1,-1,-1,-1,-1,-1,-1],"loss_changes":[8.0501277E11,2.209098E11,1.6414618E11,3.777495E10,5.335574E10,6.002678E10,3.4919154E10,0E0,0E0,0E0,0E0,0E0,0E0,0E0,0E0],"parents":[2147483647,0,0,1,1,2,2,3,3,4,4,5,5,6,6],"right_children":[2,4,6,8,10,12,14,-1,-1,-1,-1,-1,-1,-1,-1],"split_conditions":[3.2764E4,2.7628E4,3.9911E4,2.5544E4,9E0,3.3589E4,1.72E2,1.482472E2,1.7035973E2,1.7804535E2,1.9924059E2,2.0123683E2,2.2743199E2,2.3131454E2,2.693563E2],"split_indices":[6,6,7,7,1,8,0,0,0,0,0,0,0,0,0],"split_type":[0,0,0,0,0,0,0,0,0,0,0,0,0,0,0],"sum_hessian":[1.36567E5,8.3603E4,5.2964E4,3.1471E4,5.2132E4,3.994E4,1.3024E4,1.7435E4,1.4036E4,1.8581E4,3.3551E4,1.314E4,2.68E4,3.29E3,9.734E3],"tree_param":{"num_deleted":"0","num_feature":"9","num_nodes":"15","size_leaf_vector":"1"}},{"base_weights":[1.9639977E4,1.6751457E4,2.164426E4,1.4842552E4,1.7731432E4,2.0391314E4,2.4353854E4,1.3599742E2,1.5486232E2,1.670322E2,1.8590175E2,1.7183336E2,2.095962E2,2.3351036E2,2.7004694E2],"categories":[],"categories_nodes":[],"categories_segments":[],"categories_sizes":[],"default_left":[0,0,1,0,0,0,0,0,0,0,0,0,0,0,0],"id":49,"left_children":[1,3,5,7,9,11,13,-1,-1,-1,-1,-1,-1,-1,-1],"loss_changes":[7.9028657E11,1.04397275E11,2.7320857E11,1.4976811E10,3.2327598E10,1.00155785E11,6.7122495E10,0E0,0E0,0E0,0E0,0E0,0E0,0E0,0E0],"parents":[2147483647,0,0,1,1,2,2,3,3,4,4,5,5,6,6],"right_children":[2,4,6,8,10,12,14,-1,-1,-1,-1,-1,-1,-1,-1],"split_conditions":[3.0766E4,2.5528E4,3.7054E4,2.2718E4,2.9384E4,7E0,4.3843E4,1.3599742E2,1.5486232E2,1.670322E2,1.8590175E2,1.7183336E2,2.095962E2,2.3351036E2,2.7004694E2],"split_indices":[6,6,6,6,8,1,6,0,0,0,0,0,0,0,0],"split_type":[0,0,0,0,0,0,0,0,0,0,0,0,0,0,0],"sum_hessian":[1.36567E5,5.5947E4,8.062E4,1.8984E4,3.6963E4,5.5134E4,2.5486E4,6.485E3,1.2499E4,1.6831E4,2.0132E4,8.302E3,4.6832E4,1.8498E4,6.988E3],"tree_param":{"num_deleted":"0","num_feature":"9","num_nodes":"15","size_leaf_vector":"1"}},{"base_weights":[1.9443588E4,1.7801086E4,2.2902533E4,1.5933276E4,1.9281006E4,2.1984338E4,2.6016748E4,1.4875185E2,1.7251866E2,1.715962E2,1.9836769E2,2.1561818E2,2.5275671E2,2.2332967E2,2.6646503E2],"categories":[],"categories_nodes":[],"categories_segments":[],"categories_sizes":[],"default_left":[1,0,1,1,0,0,0,0,0,0,0,0,0,0,0],"id":50,"left_children":[1,3,5,7,9,11,13,-1,-1,-1,-1,-1,-1,-1,-1],"loss_changes":[7.754807E11,2.556638E11,1.2514964E11,5.6865325E10,6.0567847E10,4.6683652E10,2.2617784E10,0E0,0E0,0E0,0E0,0E0,0E0,0E0,0E0],"parents":[2147483647,0,0,1,1,2,2,3,3,4,4,5,5,6,6],"right_children":[2,4,6,8,10,12,14,-1,-1,-1,-1,-1,-1,-1,-1],"split_conditions":[3.3932E4,2.8976E4,4.0694E4,2.6455E4,7E0,4.3157E4,1.58E2,1.4875185E2,1.7251866E2,1.715962E2,1.9836769E2,2.1561818E2,2.5275671E2,2.2332967E2,2.6646503E2],"split_indices":[6,6,8,7,1,6,0,0,0,0,0,0,0,0,0],"split_type":[0,0,0,0,0,0,0,0,0,0,0,0,0,0,0],"sum_hessian":[1.36567E5,9.2601E4,4.3966E4,4.0941E4,5.166E4,3.3961E4,1.0005E4,2.2721E4,1.822E4,1.0731E4,4.0929E4,3.0104E4,3.857E3,1.466E3,8.539E3],"tree_param":{"num_deleted":"0","num_feature":"9","num_nodes":"15","size_leaf_vector":"1"}},{"base_weights":[1.9249164E4,1.705259E4,2.1785164E4,1.4889386E4,1.8106238E4,2.0728873E4,2.474701E4,1.3451213E2,1.5541673E2,1.6914392E2,1.8942822E2,1.9144423E2,2.1600781E2,2.3614174E2,2.69176E2],"categories":[],"categories_nodes":[],"categories_segments":[],"categories_sizes":[],"default_left":[1,0,1,0,0,0,0,0,0,0,0,0,0,0,0],"id":51,"left_children":[1,3,5,7,9,11,13,-1,-1,-1,-1,-1,-1,-1,-1],"loss_changes":[7.603812E11,1.6654113E11,1.977866E11,2.2283813E10,4.8745153E10,6.4141394E10,4.032299E10,0E0,0E0,0E0,0E0,0E0,0E0,0E0,0E0],"parents":[2147483647,0,0,1,1,2,2,3,3,4,4,5,5,6,6],"right_children":[2,4,6,8,10,12,14,-1,-1,-1,-1,-1,-1,-1,-1],"split_conditions":[3.1637E4,2.6415E4,3.8276E4,2.299E4,3.0709E4,3.2955E4,4.2284E4,1.3451213E2,1.5541673E2,1.6914392E2,1.8942822E2,1.9144423E2,2.1600781E2,2.3614174E2,2.69176E2],"split_indices":[6,6,8,6,8,7,7,0,0,0,0,0,0,0,0],"split_type":[0,0,0,0,0,0,0,0,0,0,0,0,0,0,0],"sum_hessian":[1.36567E5,7.3185E4,6.3382E4,2.3976E4,4.9209E4,4.6726E4,1.6656E4,7.488E3,1.6488E4,2.0304E4,2.8905E4,1.6594E4,3.0132E4,1.0952E4,5.704E3],"tree_param":{"num_deleted":"0","num_feature":"9","num_nodes":"15","size_leaf_vector":"1"}},{"base_weights":[1.9056684E4,1.7445092E4,2.2450537E4,1.5691484E4,1.8960695E4,2.1520176E4,2.5413488E4,1.4597466E2,1.6959311E2,1.704726E2,1.9583224E2,2.0180785E2,2.2577423E2,2.2312836E2,2.624773E2],"categories":[],"categories_nodes":[],"categories_segments":[],"categories_sizes":[],"default_left":[1,0,1,1,0,0,0,0,0,0,0,0,0,0,0],"id":52,"left_children":[1,3,5,7,9,11,13,-1,-1,-1,-1,-1,-1,-1,-1],"loss_changes":[7.4656514E11,2.4581767E11,1.2065335E11,5.930536E10,5.882721E10,4.693636E10,2.6577732E10,0E0,0E0,0E0,0E0,0E0,0E0,0E0,0E0],"parents":[2147483647,0,0,1,1,2,2,3,3,4,4,5,5,6,6],"right_children":[2,4,6,8,10,12,14,-1,-1,-1,-1,-1,-1,-1,-1],"split_conditions":[3.3932E4,2.9232E4,4.0872E4,2.6455E4,8E0,3.5698E4,1.72E2,1.4597466E2,1.6959311E2,1.704726E2,1.9583224E2,2.0180785E2,2.2577423E2,2.2312836E2,2.624773E2],"split_indices":[6,6,7,7,1,8,0,0,0,0,0,0,0,0,0],"split_type":[0,0,0,0,0,0,0,0,0,0,0,0,0,0,0],"sum_hessian":[1.36567E5,9.2601E4,4.3966E4,4.2935E4,4.9666E4,3.3466E4,1.05E4,2.3054E4,1.9881E4,1.2199E4,3.7467E4,1.4772E4,1.8694E4,2.232E3,8.268E3],"tree_param":{"num_deleted":"0","num_feature":"9","num_nodes":"15","size_leaf_vector":"1"}},{"base_weights":[1.8866129E4,1.5932796E4,2.0694107E4,1.4168929E4,1.6853438E4,1.9522658E4,2.34502E4,1.3280472E2,1.5002214E2,1.5691222E2,1.75359E2,1.6529425E2,2.0074864E2,2.2314006E2,2.582314E2],"categories":[],"categories_nodes":[],"categories_segments":[],"categories_sizes":[],"default_left":[0,0,1,1,0,0,1,0,0,0,0,0,0,0,0],"id":53,"left_children":[1,3,5,7,9,11,13,-1,-1,-1,-1,-1,-1,-1,-1],"loss_changes":[7.319606E11,8.491159E10,2.7117853E11,1.3118734E10,2.7048018E10,9.7261715E10,6.706692E10,0E0,0E0,0E0,0E0,0E0,0E0,0E0,0E0],"parents":[2147483647,0,0,1,1,2,2,3,3,4,4,5,5,6,6],"right_children":[2,4,6,8,10,12,14,-1,-1,-1,-1,-1,-1,-1,-1],"split_conditions":[3.0378E4,2.5327E4,3.6629E4,2.3557E4,2.822E4,7E0,4.1113E4,1.3280472E2,1.5002214E2,1.5691222E2,1.75359E2,1.6529425E2,2.0074864E2,2.2314006E2,2.582314E2],"split_indices":[6,6,7,7,8,1,8,0,0,0,0,0,0,0,0],"split_type":[0,0,0,0,0,0,0,0,0,0,0,0,0,0,0],"sum_hessian":[1.36567E5,5.2435E4,8.4132E4,1.7988E4,3.4447E4,5.9044E4,2.5088E4,8.714E3,9.274E3,1.2753E4,2.1694E4,9.201E3,4.9843E4,1.6972E4,8.116E3],"tree_param":{"num_deleted":"0","num_feature":"9","num_nodes":"15","size_leaf_vector":"1"}},{"base_weights":[1.8677479E4,1.7095049E4,2.200992E4,1.5301568E4,1.8516072E4,2.1206426E4,2.5362037E4,1.3654579E2,1.6105675E2,1.6914447E2,1.920783E2,2.0796053E2,2.477631E2,2.1506636E2,2.6011105E2],"categories":[],"categories_nodes":[],"categories_segments":[],"categories_sizes":[],"default_left":[1,0,0,0,0,1,0,0,0,0,0,0,0,0,0],"id":54,"left_children":[1,3,5,7,9,11,13,-1,-1,-1,-1,-1,-1,-1,-1],"loss_changes":[7.198013E11,2.3572198E11,1.1788301E11,5.4000615E10,5.691251E10,5.144943E10,2.0700987E10,0E0,0E0,0E0,0E0,0E0,0E0,0E0,0E0],"parents":[2147483647,0,0,1,1,2,2,3,3,4,4,5,5,6,6],"right_children":[2,4,6,8,10,12,14,-1,-1,-1,-1,-1,-1,-1,-1],"split_conditions":[3.3932E4,2.8976E4,4.2793E4,2.5274E4,9E0,4.2644E4,1.65E2,1.3654579E2,1.6105675E2,1.6914447E2,1.920783E2,2.0796053E2,2.477631E2,2.1506636E2,2.6011105E2],"split_indices":[6,6,6,8,1,8,0,0,0,0,0,0,0,0,0],"split_type":[0,0,0,0,0,0,0,0,0,0,0,0,0,0,0],"sum_hessian":[1.36567E5,9.2601E4,4.3966E4,4.0941E4,5.166E4,3.5471E4,8.495E3,1.3437E4,2.7504E4,1.559E4,3.607E4,3.182E4,3.651E3,1.229E3,7.266E3],"tree_param":{"num_deleted":"0","num_feature":"9","num_nodes":"15","size_leaf_vector":"1"}},{"base_weights":[1.8490715E4,1.6963354E4,2.1874623E4,1.5223689E4,1.8422861E4,2.1094998E4,2.5237729E4,1.4153185E2,1.6464272E2,1.6300522E2,1.8954527E2,2.0685397E2,2.4719475E2,2.1323941E2,2.5852512E2],"categories":[],"categories_nodes":[],"categories_segments":[],"categories_sizes":[],"default_left":[1,0,0,1,0,1,0,0,0,0,0,0,0,0,0],"id":55,"left_children":[1,3,5,7,9,11,13,-1,-1,-1,-1,-1,-1,-1,-1],"loss_changes":[7.0547774E11,2.3864541E11,1.1081771E11,5.678878E10,5.7426313E10,5.0679775E10,1.8666226E10,0E0,0E0,0E0,0E0,0E0,0E0,0E0,0E0],"parents":[2147483647,0,0,1,1,2,2,3,3,4,4,5,5,6,6],"right_children":[2,4,6,8,10,12,14,-1,-1,-1,-1,-1,-1,-1,-1],"split_conditions":[3.4139E4,2.9232E4,4.3157E4,2.6455E4,7E0,4.2983E4,1.65E2,1.4153185E2,1.6464272E2,1.6300522E2,1.8954527E2,2.0685397E2,2.4719475E2,2.1323941E2,2.5852512E2],"split_indices":[6,6,6,7,1,8,0,0,0,0,0,0,0,0,0],"split_type":[0,0,0,0,0,0,0,0,0,0,0,0,0,0,0],"sum_hessian":[1.36567E5,9.41E4,4.2467E4,4.2935E4,5.1165E4,3.4481E4,7.986E3,2.3054E4,1.9881E4,1.0256E4,4.0909E4,3.0986E4,3.495E3,1.089E3,6.897E3],"tree_param":{"num_deleted":"0","num_feature":"9","num_nodes":"15","size_leaf_vector":"1"}},{"base_weights":[1.830582E4,1.6754756E4,2.1572207E4,1.4896828E4,1.807415E4,2.0669113E4,2.4448346E4,1.3388818E2,1.5720737E2,1.6564694E2,1.875107E2,1.8569861E2,2.1314676E2,2.142609E2,2.5261533E2],"categories":[],"categories_nodes":[],"categories_segments":[],"categories_sizes":[],"default_left":[1,0,1,0,0,0,0,0,0,0,0,0,0,0,0],"id":56,"left_children":[1,3,5,7,9,11,13,-1,-1,-1,-1,-1,-1,-1,-1],"loss_changes":[6.9154426E11,2.267294E11,1.13695E11,4.7573893E10,5.501249E10,4.4957696E10,2.5266487E10,0E0,0E0,0E0,0E0,0E0,0E0,0E0,0E0],"parents":[2147483647,0,0,1,1,2,2,3,3,4,4,5,5,6,6],"right_children":[2,4,6,8,10,12,14,-1,-1,-1,-1,-1,-1,-1,-1],"split_conditions":[3.3932E4,2.8642E4,4.0872E4,2.5377E4,9E0,3.3099E4,1.72E2,1.3388818E2,1.5720737E2,1.6564694E2,1.875107E2,1.8569861E2,2.1314676E2,2.142609E2,2.5261533E2],"split_indices":[6,6,7,8,1,8,0,0,0,0,0,0,0,0,0],"split_type":[0,0,0,0,0,0,0,0,0,0,0,0,0,0,0],"sum_hessian":[1.36567E5,9.2601E4,4.3966E4,3.8458E4,5.4143E4,3.3466E4,1.05E4,1.3594E4,2.4864E4,1.6771E4,3.7372E4,7.878E3,2.5588E4,2.232E3,8.268E3],"tree_param":{"num_deleted":"0","num_feature":"9","num_nodes":"15","size_leaf_vector":"1"}},{"base_weights":[1.8122771E4,1.6137303E4,2.0626598E4,1.403063E4,1.7134557E4,1.959663E4,2.336893E4,1.2602566E2,1.465924E2,1.5958965E2,1.7914871E2,1.8013205E2,2.04084E2,2.2477145E2,2.5874182E2],"categories":[],"categories_nodes":[],"categories_segments":[],"categories_sizes":[],"default_left":[1,0,1,0,0,0,0,0,0,0,0,0,0,0,0],"id":57,"left_children":[1,3,5,7,9,11,13,-1,-1,-1,-1,-1,-1,-1,-1],"loss_changes":[6.7858386E11,1.597904E11,1.7013146E11,2.1790458E10,4.713559E10,5.6075747E10,3.6249272E10,0E0,0E0,0E0,0E0,0E0,0E0,0E0,0E0],"parents":[2147483647,0,0,1,1,2,2,3,3,4,4,5,5,6,6],"right_children":[2,4,6,8,10,12,14,-1,-1,-1,-1,-1,-1,-1,-1],"split_conditions":[3.1947E4,2.6503E4,3.8276E4,2.299E4,3.0709E4,3.2955E4,4.4222E4,1.2602566E2,1.465924E2,1.5958965E2,1.7914871E2,1.8013205E2,2.04084E2,2.2477145E2,2.5874182E2],"split_indices":[6,6,8,6,8,7,6,0,0,0,0,0,0,0,0],"split_type":[0,0,0,0,0,0,0,0,0,0,0,0,0,0,0],"sum_hessian":[1.36567E5,7.6172E4,6.0395E4,2.4478E4,5.1694E4,4.3911E4,1.6484E4,7.488E3,1.699E4,2.0632E4,3.1062E4,1.489E4,2.9021E4,1.2164E4,4.32E3],"tree_param":{"num_deleted":"0","num_feature":"9","num_nodes":"15","size_leaf_vector":"1"}},{"base_weights":[1.7941555E4,1.6292312E4,2.0901383E4,1.4686403E4,1.7821006E4,1.9891535E4,2.3640232E4,1.3310567E2,1.5534552E2,1.58393E2,1.8498863E2,1.8977501E2,2.117063E2,2.0492676E2,2.4317406E2],"categories":[],"categories_nodes":[],"categories_segments":[],"categories_sizes":[],"default_left":[1,0,1,0,0,1,0,0,0,0,0,0,0,0,0],"id":58,"left_children":[1,3,5,7,9,11,13,-1,-1,-1,-1,-1,-1,-1,-1],"loss_changes":[6.663113E11,2.1504826E11,1.346791E11,4.971194E10,6.0059288E10,4.134535E10,2.754714E10,0E0,0E0,0E0,0E0,0E0,0E0,0E0,0E0],"parents":[2147483647,0,0,1,1,2,2,3,3,4,4,5,5,6,6],"right_children":[2,4,6,8,10,12,14,-1,-1,-1,-1,-1,-1,-1,-1],"split_conditions":[3.2955E4,2.9553E4,3.9413E4,2.5027E4,8E0,3.5969E4,1.5E2,1.3310567E2,1.5534552E2,1.58393E2,1.8498863E2,1.8977501E2,2.117063E2,2.0492676E2,2.4317406E2],"split_indices":[7,6,8,6,1,6,0,0,0,0,0,0,0,0,0],"split_type":[0,0,0,0,0,0,0,0,0,0,0,0,0,0,0],"sum_hessian":[1.36567E5,8.7704E4,4.8863E4,4.2777E4,4.4927E4,3.5706E4,1.3157E4,1.632E4,2.6457E4,1.1457E4,3.347E4,2.0834E4,1.4872E4,2.335E3,1.0822E4],"tree_param":{"num_deleted":"0","num_feature":"9","num_nodes":"15","size_leaf_vector":"1"}},{"base_weights":[1.776215E4,1.6291407E4,2.102062E4,1.4619239E4,1.7694291E4,2.0262172E4,2.4292406E4,1.3084006E2,1.5440234E2,1.5633879E2,1.8210446E2,1.991085E2,2.4261331E2,2.0479013E2,2.4891464E2],"categories":[],"categories_nodes":[],"categories_segments":[],"categories_sizes":[],"default_left":[1,0,0,0,0,1,0,0,0,0,0,0,0,0,0],"id":59,"left_children":[1,3,5,7,9,11,13,-1,-1,-1,-1,-1,-1,-1,-1],"loss_changes":[6.5414365E11,2.2048827E11,1.04891154E11,5.391568E10,5.413064E10,4.7963963E10,1.7736139E10,0E0,0E0,0E0,0E0,0E0,0E0,0E0,0E0],"parents":[2147483647,0,0,1,1,2,2,3,3,4,4,5,5,6,6],"right_children":[2,4,6,8,10,12,14,-1,-1,-1,-1,-1,-1,-1,-1],"split_conditions":[3.4139E4,2.9232E4,4.3157E4,2.5679E4,7E0,4.401E4,1.65E2,1.3084006E2,1.5440234E2,1.5633879E2,1.8210446E2,1.991085E2,2.4261331E2,2.0479013E2,2.4891464E2],"split_indices":[6,6,6,8,1,8,0,0,0,0,0,0,0,0,0],"split_type":[0,0,0,0,0,0,0,0,0,0,0,0,0,0,0],"sum_hessian":[1.36567E5,9.41E4,4.2467E4,4.2935E4,5.1165E4,3.4481E4,7.986E3,1.4966E4,2.7969E4,1.0256E4,4.0909E4,3.1702E4,2.779E3,1.089E3,6.897E3],"tree_param":{"num_deleted":"0","num_feature":"9","num_nodes":"15","size_leaf_vector":"1"}},{"base_weights":[1.7584541E4,1.5964333E4,2.0492258E4,1.4392361E4,1.7460723E4,1.9500658E4,2.318162E4,1.2832729E2,1.5118716E2,1.5514767E2,1.8126353E2,1.8605426E2,2.0753441E2,2.0087724E2,2.3847252E2],"categories":[],"categories_nodes":[],"categories_segments":[],"categories_sizes":[],"default_left":[1,0,1,0,0,1,0,0,0,0,0,0,0,0,0],"id":60,"left_children":[1,3,5,7,9,11,13,-1,-1,-1,-1,-1,-1,-1,-1],"loss_changes":[6.430581E11,2.0605357E11,1.2985775E11,4.8267E10,5.79139E10,3.966029E10,2.6618626E10,0E0,0E0,0E0,0E0,0E0,0E0,0E0,0E0],"parents":[2147483647,0,0,1,1,2,2,3,3,4,4,5,5,6,6],"right_children":[2,4,6,8,10,12,14,-1,-1,-1,-1,-1,-1,-1,-1],"split_conditions":[3.2955E4,2.9553E4,3.9413E4,2.5274E4,8E0,3.5969E4,1.5E2,1.2832729E2,1.5118716E2,1.5514767E2,1.8126353E2,1.8605426E2,2.0753441E2,2.0087724E2,2.3847252E2],"split_indices":[7,6,8,8,1,6,0,0,0,0,0,0,0,0,0],"split_type":[0,0,0,0,0,0,0,0,0,0,0,0,0,0,0],"sum_hessian":[1.36567E5,8.7704E4,4.8863E4,4.2777E4,4.4927E4,3.5706E4,1.3157E4,1.3598E4,2.9179E4,1.1457E4,3.347E4,2.0834E4,1.4872E4,2.335E3,1.0822E4],"tree_param":{"num_deleted":"0","num_feature":"9","num_nodes":"15","size_leaf_vector":"1"}},{"base_weights":[1.7408705E4,1.5840224E4,2.0352781E4,1.4256498E4,1.7314428E4,1.9357506E4,2.2971021E4,1.2902199E2,1.508635E2,1.5377846E2,1.796461E2,1.8510774E2,2.0619696E2,1.9898839E2,2.362884E2],"categories":[],"categories_nodes":[],"categories_segments":[],"categories_sizes":[],"default_left":[1,0,1,0,0,1,0,0,0,0,0,0,0,0,0],"id":61,"left_children":[1,3,5,7,9,11,13,-1,-1,-1,-1,-1,-1,-1,-1],"loss_changes":[6.303116E11,2.0778792E11,1.2324333E11,4.808822E10,5.7823724E10,3.6379296E10,2.5939673E10,0E0,0E0,0E0,0E0,0E0,0E0,0E0,0E0],"parents":[2147483647,0,0,1,1,2,2,3,3,4,4,5,5,6,6],"right_children":[2,4,6,8,10,12,14,-1,-1,-1,-1,-1,-1,-1,-1],"split_conditions":[3.3138E4,2.9553E4,3.9413E4,2.5027E4,8E0,3.625E4,1.5E2,1.2902199E2,1.508635E2,1.5377846E2,1.796461E2,1.8510774E2,2.0619696E2,1.9898839E2,2.362884E2],"split_indices":[7,6,8,6,1,6,0,0,0,0,0,0,0,0,0],"split_type":[0,0,0,0,0,0,0,0,0,0,0,0,0,0,0],"sum_hessian":[1.36567E5,8.9103E4,4.7464E4,4.2961E4,4.6142E4,3.4397E4,1.3067E4,1.6329E4,2.6632E4,1.1604E4,3.4538E4,2.0596E4,1.3801E4,2.31E3,1.0757E4],"tree_param":{"num_deleted":"0","num_feature":"9","num_nodes":"15","size_leaf_vector":"1"}},{"base_weights":[1.7234629E4,1.5803903E4,2.0404438E4,1.3818385E4,1.6923861E4,1.9661623E4,2.3608812E4,1.2463137E2,1.4652802E2,1.4992455E2,1.7521646E2,1.9319563E2,2.3555367E2,1.9869977E2,2.4196188E2],"categories":[],"categories_nodes":[],"categories_segments":[],"categories_sizes":[],"default_left":[1,0,0,0,0,1,0,0,0,0,0,0,0,0,0],"id":62,"left_children":[1,3,5,7,9,11,13,-1,-1,-1,-1,-1,-1,-1,-1],"loss_changes":[6.1902894E11,2.0901895E11,1.0062135E11,3.8200672E10,6.919658E10,4.547045E10,1.7059807E10,0E0,0E0,0E0,0E0,0E0,0E0,0E0,0E0],"parents":[2147483647,0,0,1,1,2,2,3,3,4,4,5,5,6,6],"right_children":[2,4,6,8,10,12,14,-1,-1,-1,-1,-1,-1,-1,-1],"split_conditions":[3.4139E4,2.8641E4,4.3157E4,2.5171E4,7E0,4.401E4,1.65E2,1.2463137E2,1.4652802E2,1.4992455E2,1.7521646E2,1.9319563E2,2.3555367E2,1.9869977E2,2.4196188E2],"split_indices":[6,7,6,8,1,8,0,0,0,0,0,0,0,0,0],"split_type":[0,0,0,0,0,0,0,0,0,0,0,0,0,0,0],"sum_hessian":[1.36567E5,9.41E4,4.2467E4,3.3941E4,6.0159E4,3.4481E4,7.986E3,1.294E4,2.1001E4,1.4225E4,4.5934E4,3.1702E4,2.779E3,1.089E3,6.897E3],"tree_param":{"num_deleted":"0","num_feature":"9","num_nodes":"15","size_leaf_vector":"1"}},{"base_weights":[1.7062293E4,1.5486592E4,1.9890139E4,1.3960482E4,1.6939324E4,1.875827E4,2.2123799E4,1.2635479E2,1.4777301E2,1.5048625E2,1.7586055E2,1.7996153E2,2.0041081E2,2.1278108E2,2.4544347E2],"categories":[],"categories_nodes":[],"categories_segments":[],"categories_sizes":[],"default_left":[1,0,1,0,0,1,0,0,0,0,0,0,0,0,0],"id":63,"left_children":[1,3,5,7,9,11,13,-1,-1,-1,-1,-1,-1,-1,-1],"loss_changes":[6.082202E11,1.9421096E11,1.231217E11,4.6111654E10,5.4671704E10,3.1352422E10,3.310669E10,0E0,0E0,0E0,0E0,0E0,0E0,0E0,0E0],"parents":[2147483647,0,0,1,1,2,2,3,3,4,4,5,5,6,6],"right_children":[2,4,6,8,10,12,14,-1,-1,-1,-1,-1,-1,-1,-1],"split_conditions":[3.2955E4,2.9553E4,3.8163E4,2.5027E4,8E0,3.625E4,4.4222E4,1.2635479E2,1.4777301E2,1.5048625E2,1.7586055E2,1.7996153E2,2.0041081E2,2.1278108E2,2.4544347E2],"split_indices":[7,6,8,6,1,6,6,0,0,0,0,0,0,0,0],"split_type":[0,0,0,0,0,0,0,0,0,0,0,0,0,0,0],"sum_hessian":[1.36567E5,8.7704E4,4.8863E4,4.2777E4,4.4927E4,3.2436E4,1.6427E4,1.632E4,2.6457E4,1.1457E4,3.347E4,2.0357E4,1.2079E4,1.2181E4,4.246E3],"tree_param":{"num_deleted":"0","num_feature":"9","num_nodes":"15","size_leaf_vector":"1"}},{"base_weights":[1.6891682E4,1.4382016E4,1.8633086E4,1.2707878E4,1.5241478E4,1.7589521E4,2.1216758E4,1.15471954E2,1.3309116E2,1.4320937E2,1.6010329E2,1.4628479E2,1.8104439E2,2.0321362E2,2.3685048E2],"categories":[],"categories_nodes":[],"categories_segments":[],"categories_sizes":[],"default_left":[0,0,1,0,0,0,1,0,0,0,0,0,0,0,0],"id":64,"left_children":[1,3,5,7,9,11,13,-1,-1,-1,-1,-1,-1,-1,-1],"loss_changes":[5.96581E11,8.030834E10,2.1699861E11,1.3094879E10,2.5932333E10,8.730234E10,5.0771E10,0E0,0E0,0E0,0E0,0E0,0E0,0E0,0E0],"parents":[2147483647,0,0,1,1,2,2,3,3,4,4,5,5,6,6],"right_children":[2,4,6,8,10,12,14,-1,-1,-1,-1,-1,-1,-1,-1],"split_conditions":[3.0766E4,2.5528E4,3.7035E4,2.2718E4,2.9384E4,7E0,4.2644E4,1.15471954E2,1.3309116E2,1.4320937E2,1.6010329E2,1.4628479E2,1.8104439E2,2.0321362E2,2.3685048E2],"split_indices":[6,6,7,6,8,1,8,0,0,0,0,0,0,0,0],"split_type":[0,0,0,0,0,0,0,0,0,0,0,0,0,0,0],"sum_hessian":[1.36567E5,5.5947E4,8.062E4,1.8984E4,3.6963E4,5.7431E4,2.3189E4,6.485E3,1.2499E4,1.6831E4,2.0132E4,8.512E3,4.8919E4,1.7023E4,6.166E3],"tree_param":{"num_deleted":"0","num_feature":"9","num_nodes":"15","size_leaf_vector":"1"}},{"base_weights":[1.6722773E4,1.53303E4,1.9807838E4,1.3400477E4,1.6418842E4,1.8998625E4,2.2619014E4,1.2016068E2,1.4181232E2,1.4544528E2,1.6998956E2,1.6851932E2,1.9559865E2,1.9181041E2,2.3274579E2],"categories":[],"categories_nodes":[],"categories_segments":[],"categories_sizes":[],"default_left":[1,0,0,0,0,0,0,0,0,0,0,0,0,0,0],"id":65,"left_children":[1,3,5,7,9,11,13,-1,-1,-1,-1,-1,-1,-1,-1],"loss_changes":[5.863763E11,1.9745735E11,9.617854E10,3.651666E10,6.5165853E10,3.9407583E10,2.0935868E10,0E0,0E0,0E0,0E0,0E0,0E0,0E0,0E0],"parents":[2147483647,0,0,1,1,2,2,3,3,4,4,5,5,6,6],"right_children":[2,4,6,8,10,12,14,-1,-1,-1,-1,-1,-1,-1,-1],"split_conditions":[3.4139E4,2.8641E4,4.2222E4,2.4966E4,7E0,3.2861E4,1.65E2,1.2016068E2,1.4181232E2,1.4544528E2,1.6998956E2,1.6851932E2,1.9559865E2,1.9181041E2,2.3274579E2],"split_indices":[6,7,6,8,1,8,0,0,0,0,0,0,0,0,0],"split_type":[0,0,0,0,0,0,0,0,0,0,0,0,0,0,0],"sum_hessian":[1.36567E5,9.41E4,4.2467E4,3.3941E4,6.0159E4,3.2981E4,9.486E3,1.2245E4,2.1696E4,1.4225E4,4.5934E4,6.842E3,2.6139E4,1.524E3,7.962E3],"tree_param":{"num_deleted":"0","num_feature":"9","num_nodes":"15","size_leaf_vector":"1"}},{"base_weights":[1.6555557E4,1.50549E4,1.9372322E4,1.3547245E4,1.6458295E4,1.8417902E4,2.1883098E4,1.2059484E2,1.424308E2,1.461249E2,1.7078001E2,1.7611774E2,1.961957E2,1.8901324E2,2.2521597E2],"categories":[],"categories_nodes":[],"categories_segments":[],"categories_sizes":[],"default_left":[1,0,1,0,0,1,0,0,0,0,0,0,0,0,0],"id":66,"left_children":[1,3,5,7,9,11,13,-1,-1,-1,-1,-1,-1,-1,-1],"loss_changes":[5.7697685E11,1.8830538E11,1.1333848E11,4.4304433E10,5.2533658E10,3.2975618E10,2.4453317E10,0E0,0E0,0E0,0E0,0E0,0E0,0E0,0E0],"parents":[2147483647,0,0,1,1,2,2,3,3,4,4,5,5,6,6],"right_children":[2,4,6,8,10,12,14,-1,-1,-1,-1,-1,-1,-1,-1],"split_conditions":[3.3138E4,2.9553E4,3.9413E4,2.4916E4,8E0,3.625E4,1.5E2,1.2059484E2,1.424308E2,1.461249E2,1.7078001E2,1.7611774E2,1.961957E2,1.8901324E2,2.2521597E2],"split_indices":[7,6,8,7,1,6,0,0,0,0,0,0,0,0,0],"split_type":[0,0,0,0,0,0,0,0,0,0,0,0,0,0,0],"sum_hessian":[1.36567E5,8.9103E4,4.7464E4,4.2961E4,4.6142E4,3.4397E4,1.3067E4,1.3696E4,2.9265E4,1.1604E4,3.4538E4,2.0596E4,1.3801E4,2.31E3,1.0757E4],"tree_param":{"num_deleted":"0","num_feature":"9","num_nodes":"15","size_leaf_vector":"1"}},{"base_weights":[1.639001E4,1.4915359E4,1.9199574E4,1.3414181E4,1.6302498E4,1.8267441E4,2.171864E4,1.1867663E2,1.4074966E2,1.4468031E2,1.6914731E2,1.7460739E2,1.9447275E2,2.0012527E2,2.2806815E2],"categories":[],"categories_nodes":[],"categories_segments":[],"categories_sizes":[],"default_left":[1,0,1,0,0,1,0,0,0,0,0,0,0,0,0],"id":67,"left_children":[1,3,5,7,9,11,13,-1,-1,-1,-1,-1,-1,-1,-1],"loss_changes":[5.655306E11,1.8628792E11,1.099736E11,4.3795874E10,5.203139E10,3.2320258E10,2.310275E10,0E0,0E0,0E0,0E0,0E0,0E0,0E0,0E0],"parents":[2147483647,0,0,1,1,2,2,3,3,4,4,5,5,6,6],"right_children":[2,4,6,8,10,12,14,-1,-1,-1,-1,-1,-1,-1,-1],"split_conditions":[3.3202E4,2.9553E4,3.9583E4,2.4266E4,8E0,3.625E4,1.87E2,1.1867663E2,1.4074966E2,1.4468031E2,1.6914731E2,1.7460739E2,1.9447275E2,2.0012527E2,2.2806815E2],"split_indices":[7,6,8,6,1,6,0,0,0,0,0,0,0,0,0],"split_type":[0,0,0,0,0,0,0,0,0,0,0,0,0,0,0],"sum_hessian":[1.36567E5,8.9564E4,4.7003E4,4.3019E4,4.6545E4,3.4314E4,1.2689E4,1.2884E4,3.0135E4,1.1653E4,3.4892E4,2.0389E4,1.3925E4,4.949E3,7.74E3],"tree_param":{"num_deleted":"0","num_feature":"9","num_nodes":"15","size_leaf_vector":"1"}},{"base_weights":[1.622612E4,1.4871449E4,1.9227432E4,1.2995934E4,1.5929359E4,1.8515623E4,2.2298088E4,1.1727648E2,1.3811432E2,1.4104878E2,1.6494052E2,1.81876E2,2.2249689E2,1.8701021E2,2.2863254E2],"categories":[],"categories_nodes":[],"categories_segments":[],"categories_sizes":[],"default_left":[1,0,0,0,0,1,0,0,0,0,0,0,0,0,0],"id":68,"left_children":[1,3,5,7,9,11,13,-1,-1,-1,-1,-1,-1,-1,-1],"loss_changes":[5.5496933E11,1.8650182E11,9.2409954E10,3.4943795E10,6.1748543E10,4.1830842E10,1.5809642E10,0E0,0E0,0E0,0E0,0E0,0E0,0E0,0E0],"parents":[2147483647,0,0,1,1,2,2,3,3,4,4,5,5,6,6],"right_children":[2,4,6,8,10,12,14,-1,-1,-1,-1,-1,-1,-1,-1],"split_conditions":[3.4139E4,2.8641E4,4.3157E4,2.5274E4,7E0,4.401E4,1.65E2,1.1727648E2,1.3811432E2,1.4104878E2,1.6494052E2,1.81876E2,2.2249689E2,1.8701021E2,2.2863254E2],"split_indices":[6,7,6,8,1,8,0,0,0,0,0,0,0,0,0],"split_type":[0,0,0,0,0,0,0,0,0,0,0,0,0,0,0],"sum_hessian":[1.36567E5,9.41E4,4.2467E4,3.3941E4,6.0159E4,3.4481E4,7.986E3,1.3289E4,2.0652E4,1.4225E4,4.5934E4,3.1702E4,2.779E3,1.089E3,6.897E3],"tree_param":{"num_deleted":"0","num_feature":"9","num_nodes":"15","size_leaf_vector":"1"}},{"base_weights":[1.6063869E4,1.4571314E4,1.8742494E4,1.3133293E4,1.5940196E4,1.7665664E4,2.086755E4,1.15814644E2,1.3767216E2,1.4358867E2,1.663297E2,1.7004161E2,1.8977301E2,2.0059842E2,2.3179453E2],"categories":[],"categories_nodes":[],"categories_segments":[],"categories_sizes":[],"default_left":[1,0,1,0,0,1,0,0,0,0,0,0,0,0,0],"id":69,"left_children":[1,3,5,7,9,11,13,-1,-1,-1,-1,-1,-1,-1,-1],"loss_changes":[5.457251E11,1.7243832E11,1.1144895E11,4.1922593E10,4.8980034E10,2.7820818E10,3.0212096E10,0E0,0E0,0E0,0E0,0E0,0E0,0E0,0E0],"parents":[2147483647,0,0,1,1,2,2,3,3,4,4,5,5,6,6],"right_children":[2,4,6,8,10,12,14,-1,-1,-1,-1,-1,-1,-1,-1],"split_conditions":[3.2955E4,2.9553E4,3.8163E4,2.4151E4,9E0,3.6742E4,4.4222E4,1.15814644E2,1.3767216E2,1.4358867E2,1.663297E2,1.7004161E2,1.8977301E2,2.0059842E2,2.3179453E2],"split_indices":[7,6,8,6,1,6,6,0,0,0,0,0,0,0,0],"split_type":[0,0,0,0,0,0,0,0,0,0,0,0,0,0,0],"sum_hessian":[1.36567E5,8.7704E4,4.8863E4,4.2777E4,4.4927E4,3.2436E4,1.6427E4,1.2412E4,3.0365E4,1.3693E4,3.1234E4,2.1571E4,1.0865E4,1.2181E4,4.246E3],"tree_param":{"num_deleted":"0","num_feature":"9","num_nodes":"15","size_leaf_vector":"1"}},{"base_weights":[1.590324E4,1.4468959E4,1.863589E4,1.3038644E4,1.5841681E4,1.7728816E4,2.1087238E4,1.166555E2,1.3756705E2,1.3785936E2,1.6376813E2,1.694595E2,1.8873787E2,1.9410689E2,2.2156587E2],"categories":[],"categories_nodes":[],"categories_segments":[],"categories_sizes":[],"default_left":[1,0,1,0,0,1,0,0,0,0,0,0,0,0,0],"id":70,"left_children":[1,3,5,7,9,11,13,-1,-1,-1,-1,-1,-1,-1,-1],"loss_changes":[5.3499396E11,1.7564906E11,1.0414142E11,4.309228E10,5.0046435E10,3.0438064E10,2.2320513E10,0E0,0E0,0E0,0E0,0E0,0E0,0E0,0E0],"parents":[2147483647,0,0,1,1,2,2,3,3,4,4,5,5,6,6],"right_children":[2,4,6,8,10,12,14,-1,-1,-1,-1,-1,-1,-1,-1],"split_conditions":[3.3202E4,2.9676E4,3.9583E4,2.5679E4,7E0,3.625E4,1.87E2,1.166555E2,1.3756705E2,1.3785936E2,1.6376813E2,1.694595E2,1.8873787E2,1.9410689E2,2.2156587E2],"split_indices":[7,6,8,8,1,6,0,0,0,0,0,0,0,0,0],"split_type":[0,0,0,0,0,0,0,0,0,0,0,0,0,0,0],"sum_hessian":[1.36567E5,8.9564E4,4.7003E4,4.3867E4,4.5697E4,3.4314E4,1.2689E4,1.5069E4,2.8798E4,9.444E3,3.6253E4,2.0389E4,1.3925E4,4.949E3,7.74E3],"tree_param":{"num_deleted":"0","num_feature":"9","num_nodes":"15","size_leaf_vector":"1"}},{"base_weights":[1.5744218E4,1.4134233E4,1.813544E4,1.2183885E4,1.5005976E4,1.729545E4,2.0812904E4,1.1045113E2,1.2903258E2,1.3639903E2,1.5580904E2,1.5627182E2,1.7999388E2,1.8325273E2,2.1658803E2],"categories":[],"categories_nodes":[],"categories_segments":[],"categories_sizes":[],"default_left":[1,0,1,0,0,0,0,0,0,0,0,0,0,0,0],"id":71,"left_children":[1,3,5,7,9,11,13,-1,-1,-1,-1,-1,-1,-1,-1],"loss_changes":[5.2550854E11,1.3858924E11,1.2322026E11,2.0516176E10,4.4087378E10,4.8844767E10,2.7205304E10,0E0,0E0,0E0,0E0,0E0,0E0,0E0,0E0],"parents":[2147483647,0,0,1,1,2,2,3,3,4,4,5,5,6,6],"right_children":[2,4,6,8,10,12,14,-1,-1,-1,-1,-1,-1,-1,-1],"split_conditions":[3.2534E4,2.7191E4,3.9911E4,2.4395E4,7E0,3.3099E4,1.72E2,1.1045113E2,1.2903258E2,1.3639903E2,1.5580904E2,1.5627182E2,1.7999388E2,1.8325273E2,2.1658803E2],"split_indices":[6,7,7,8,1,8,0,0,0,0,0,0,0,0,0],"split_type":[0,0,0,0,0,0,0,0,0,0,0,0,0,0,0],"sum_hessian":[1.36567E5,8.162E4,5.4947E4,2.5217E4,5.6403E4,4.1831E4,1.3116E4,9.769E3,1.5448E4,1.6714E4,3.9689E4,1.242E4,2.9411E4,3.334E3,9.782E3],"tree_param":{"num_deleted":"0","num_feature":"9","num_nodes":"15","size_leaf_vector":"1"}},{"base_weights":[1.5586785E4,1.4070387E4,1.8079008E4,1.2718739E4,1.5417635E4,1.7019932E4,2.0166086E4,1.1290961E2,1.3369946E2,1.3887137E2,1.6114478E2,1.6311876E2,1.8206288E2,1.9389119E2,2.2486826E2],"categories":[],"categories_nodes":[],"categories_segments":[],"categories_sizes":[],"default_left":[1,0,1,0,0,1,0,0,0,0,0,0,0,0,0],"id":72,"left_children":[1,3,5,7,9,11,13,-1,-1,-1,-1,-1,-1,-1,-1],"loss_changes":[5.1586164E11,1.5442798E11,1.138418E11,3.926393E10,4.512337E10,2.8494004E10,3.09094E10,0E0,0E0,0E0,0E0,0E0,0E0,0E0,0E0],"parents":[2147483647,0,0,1,1,2,2,3,3,4,4,5,5,6,6],"right_children":[2,4,6,8,10,12,14,-1,-1,-1,-1,-1,-1,-1,-1],"split_conditions":[3.2606E4,2.9553E4,3.792E4,2.4811E4,9E0,3.5969E4,4.4222E4,1.1290961E2,1.3369946E2,1.3887137E2,1.6114478E2,1.6311876E2,1.8206288E2,1.9389119E2,2.2486826E2],"split_indices":[7,6,8,7,1,6,6,0,0,0,0,0,0,0,0],"split_type":[0,0,0,0,0,0,0,0,0,0,0,0,0,0,0],"sum_hessian":[1.36567E5,8.491E4,5.1657E4,4.2391E4,4.2519E4,3.4274E4,1.7383E4,1.3284E4,2.9107E4,1.3309E4,2.921E4,2.1473E4,1.2801E4,1.303E4,4.353E3],"tree_param":{"num_deleted":"0","num_feature":"9","num_nodes":"15","size_leaf_vector":"1"}},{"base_weights":[1.5430927E4,1.4202765E4,1.8453193E4,1.23519E4,1.5203531E4,1.7796328E4,2.1502271E4,1.1049857E2,1.3083052E2,1.3398761E2,1.5740942E2,1.7453027E2,2.122575E2,1.7783409E2,2.1994391E2],"categories":[],"categories_nodes":[],"categories_segments":[],"categories_sizes":[],"default_left":[1,0,0,0,0,1,0,0,0,0,0,0,0,0,0],"id":73,"left_children":[1,3,5,7,9,11,13,-1,-1,-1,-1,-1,-1,-1,-1],"loss_changes":[5.0665305E11,1.7969027E11,7.86453E10,3.2305054E10,6.091912E10,3.7857788E10,1.2399411E10,0E0,0E0,0E0,0E0,0E0,0E0,0E0,0E0],"parents":[2147483647,0,0,1,1,2,2,3,3,4,4,5,5,6,6],"right_children":[2,4,6,8,10,12,14,-1,-1,-1,-1,-1,-1,-1,-1],"split_conditions":[3.4576E4,2.8641E4,4.3843E4,2.4966E4,7E0,4.401E4,1.65E2,1.1049857E2,1.3083052E2,1.3398761E2,1.5740942E2,1.7453027E2,2.122575E2,1.7783409E2,2.1994391E2],"split_indices":[6,7,6,8,1,8,0,0,0,0,0,0,0,0,0],"split_type":[0,0,0,0,0,0,0,0,0,0,0,0,0,0,0],"sum_hessian":[1.36567E5,9.711E4,3.9457E4,3.4085E4,6.3025E4,3.2469E4,6.988E3,1.2263E4,2.1822E4,1.4467E4,4.8558E4,2.952E4,2.949E3,8.21E2,6.167E3],"tree_param":{"num_deleted":"0","num_feature":"9","num_nodes":"15","size_leaf_vector":"1"}},{"base_weights":[1.5276627E4,1.38928955E4,1.7912969E4,1.2516304E4,1.5214058E4,1.7071205E4,2.0381867E4,1.0982033E2,1.3121556E2,1.3447472E2,1.5796257E2,1.5699843E2,1.770405E2,1.7316306E2,2.095957E2],"categories":[],"categories_nodes":[],"categories_segments":[],"categories_sizes":[],"default_left":[1,0,1,0,0,0,0,0,0,0,0,0,0,0,0],"id":74,"left_children":[1,3,5,7,9,11,13,-1,-1,-1,-1,-1,-1,-1,-1],"loss_changes":[4.9794777E11,1.6270125E11,9.733721E10,4.0592474E10,4.678851E10,3.0148657E10,2.0793262E10,0E0,0E0,0E0,0E0,0E0,0E0,0E0,0E0],"parents":[2147483647,0,0,1,1,2,2,3,3,4,4,5,5,6,6],"right_children":[2,4,6,8,10,12,14,-1,-1,-1,-1,-1,-1,-1,-1],"split_conditions":[3.3202E4,2.9676E4,3.9938E4,2.4151E4,8E0,3.3282E4,1.5E2,1.0982033E2,1.3121556E2,1.3447472E2,1.5796257E2,1.5699843E2,1.770405E2,1.7316306E2,2.095957E2],"split_indices":[7,6,8,6,1,8,0,0,0,0,0,0,0,0,0],"split_type":[0,0,0,0,0,0,0,0,0,0,0,0,0,0,0],"sum_hessian":[1.36567E5,8.9564E4,4.7003E4,4.3867E4,4.5697E4,3.5058E4,1.1945E4,1.2415E4,3.1452E4,1.1333E4,3.4364E4,1.1078E4,2.398E4,1.899E3,1.0046E4],"tree_param":{"num_deleted":"0","num_feature":"9","num_nodes":"15","size_leaf_vector":"1"}},{"base_weights":[1.512387E4,1.3852757E4,1.7940059E4,1.209768E4,1.4842732E4,1.7176846E4,2.0539408E4,1.090057E2,1.2867421E2,1.3130347E2,1.5372733E2,1.5954134E2,1.8089713E2,1.7718628E2,2.1230548E2],"categories":[],"categories_nodes":[],"categories_segments":[],"categories_sizes":[],"default_left":[1,0,1,0,0,0,0,0,0,0,0,0,0,0,0],"id":75,"left_children":[1,3,5,7,9,11,13,-1,-1,-1,-1,-1,-1,-1,-1],"loss_changes":[4.8862383E11,1.63322E11,8.3897614E10,3.1136416E10,5.439593E10,3.636042E10,1.8405917E10,0E0,0E0,0E0,0E0,0E0,0E0,0E0,0E0],"parents":[2147483647,0,0,1,1,2,2,3,3,4,4,5,5,6,6],"right_children":[2,4,6,8,10,12,14,-1,-1,-1,-1,-1,-1,-1,-1],"split_conditions":[3.4139E4,2.8641E4,4.1292E4,2.5274E4,7E0,3.5698E4,1.72E2,1.090057E2,1.2867421E2,1.3130347E2,1.5372733E2,1.5954134E2,1.8089713E2,1.7718628E2,2.1230548E2],"split_indices":[6,7,7,8,1,8,0,0,0,0,0,0,0,0,0],"split_type":[0,0,0,0,0,0,0,0,0,0,0,0,0,0,0],"sum_hessian":[1.36567E5,9.41E4,4.2467E4,3.3941E4,6.0159E4,3.2834E4,9.633E3,1.3289E4,2.0652E4,1.4225E4,4.5934E4,1.4043E4,1.8791E4,1.901E3,7.732E3],"tree_param":{"num_deleted":"0","num_feature":"9","num_nodes":"15","size_leaf_vector":"1"}},{"base_weights":[1.4972641E4,1.3613784E4,1.7561592E4,1.2263392E4,1.4909801E4,1.6734543E4,1.9987332E4,1.103122E2,1.2993666E2,1.3175659E2,1.5481308E2,1.5387988E2,1.7355942E2,1.6967767E2,2.0556377E2],"categories":[],"categories_nodes":[],"categories_segments":[],"categories_sizes":[],"default_left":[1,0,1,0,0,0,0,0,0,0,0,0,0,0,0],"id":76,"left_children":[1,3,5,7,9,11,13,-1,-1,-1,-1,-1,-1,-1,-1],"loss_changes":[4.8021216E11,1.5656708E11,9.396499E10,3.932999E10,4.5085622E10,2.9068624E10,2.0177224E10,0E0,0E0,0E0,0E0,0E0,0E0,0E0,0E0],"parents":[2147483647,0,0,1,1,2,2,3,3,4,4,5,5,6,6],"right_children":[2,4,6,8,10,12,14,-1,-1,-1,-1,-1,-1,-1,-1],"split_conditions":[3.3202E4,2.9676E4,3.9938E4,2.5027E4,8E0,3.3282E4,1.5E2,1.103122E2,1.2993666E2,1.3175659E2,1.5481308E2,1.5387988E2,1.7355942E2,1.6967767E2,2.0556377E2],"split_indices":[7,6,8,6,1,8,0,0,0,0,0,0,0,0,0],"split_type":[0,0,0,0,0,0,0,0,0,0,0,0,0,0,0],"sum_hessian":[1.36567E5,8.9564E4,4.7003E4,4.3867E4,4.5697E4,3.5058E4,1.1945E4,1.633E4,2.7537E4,1.1333E4,3.4364E4,1.1078E4,2.398E4,1.899E3,1.0046E4],"tree_param":{"num_deleted":"0","num_feature":"9","num_nodes":"15","size_leaf_vector":"1"}},{"base_weights":[1.4822924E4,1.2608522E4,1.638253E4,1.1095089E4,1.3375267E4,1.5440029E4,1.8700047E4,1.0255706E2,1.1839065E2,1.259622E2,1.4125029E2,1.2735206E2,1.5908882E2,1.7973026E2,2.1204645E2],"categories":[],"categories_nodes":[],"categories_segments":[],"categories_sizes":[],"default_left":[0,0,1,1,0,0,0,0,0,0,0,0,0,0,0],"id":77,"left_children":[1,3,5,7,9,11,13,-1,-1,-1,-1,-1,-1,-1,-1],"loss_changes":[4.7144396E11,6.5346208E10,1.7473051E11,1.173409E10,2.1700805E10,7.204346E10,4.1793094E10,0E0,0E0,0E0,0E0,0E0,0E0,0E0,0E0],"parents":[2147483647,0,0,1,1,2,2,3,3,4,4,5,5,6,6],"right_children":[2,4,6,8,10,12,14,-1,-1,-1,-1,-1,-1,-1,-1],"split_conditions":[3.0819E4,2.5528E4,3.7035E4,2.3557E4,2.9782E4,7E0,4.3843E4,1.0255706E2,1.1839065E2,1.259622E2,1.4125029E2,1.2735206E2,1.5908882E2,1.7973026E2,2.1204645E2],"split_indices":[6,6,7,7,8,1,6,0,0,0,0,0,0,0,0],"split_type":[0,0,0,0,0,0,0,0,0,0,0,0,0,0,0],"sum_hessian":[1.36567E5,5.644E4,8.0127E4,1.8984E4,3.7456E4,5.6967E4,2.316E4,8.927E3,1.0057E4,1.8378E4,1.9078E4,8.42E3,4.8547E4,1.7956E4,5.204E3],"tree_param":{"num_deleted":"0","num_feature":"9","num_nodes":"15","size_leaf_vector":"1"}},{"base_weights":[1.4674703E4,1.3499737E4,1.7566066E4,1.1801957E4,1.4491068E4,1.6876271E4,2.028194E4,1.0554619E2,1.2521249E2,1.2714032E2,1.5007289E2,1.6558107E2,2.0227979E2,1.6897958E2,2.0813727E2],"categories":[],"categories_nodes":[],"categories_segments":[],"categories_sizes":[],"default_left":[1,0,0,0,0,1,0,0,0,0,0,0,0,0,0],"id":78,"left_children":[1,3,5,7,9,11,13,-1,-1,-1,-1,-1,-1,-1,-1],"loss_changes":[4.6371806E11,1.6327167E11,7.357963E10,3.1992054E10,5.6048484E10,3.3226228E10,1.4021296E10,0E0,0E0,0E0,0E0,0E0,0E0,0E0,0E0],"parents":[2147483647,0,0,1,1,2,2,3,3,4,4,5,5,6,6],"right_children":[2,4,6,8,10,12,14,-1,-1,-1,-1,-1,-1,-1,-1],"split_conditions":[3.4576E4,2.8924E4,4.3157E4,2.5171E4,7E0,4.401E4,1.65E2,1.0554619E2,1.2521249E2,1.2714032E2,1.5007289E2,1.6558107E2,2.0227979E2,1.6897958E2,2.0813727E2],"split_indices":[6,7,6,8,1,8,0,0,0,0,0,0,0,0,0],"split_type":[0,0,0,0,0,0,0,0,0,0,0,0,0,0,0],"sum_hessian":[1.36567E5,9.711E4,3.9457E4,3.5804E4,6.1306E4,3.1471E4,7.986E3,1.3101E4,2.2703E4,1.3806E4,4.75E4,2.8748E4,2.723E3,1.089E3,6.897E3],"tree_param":{"num_deleted":"0","num_feature":"9","num_nodes":"15","size_leaf_vector":"1"}},{"base_weights":[1.4527965E4,1.3102834E4,1.6870191E4,1.1841095E4,1.4360468E4,1.586999E4,1.884126E4,1.0335296E2,1.2395712E2,1.292124E2,1.501576E2,1.4464111E2,1.6413449E2,1.820238E2,2.1375836E2],"categories":[],"categories_nodes":[],"categories_segments":[],"categories_sizes":[],"default_left":[1,0,1,0,0,0,0,0,0,0,0,0,0,0,0],"id":79,"left_children":[1,3,5,7,9,11,13,-1,-1,-1,-1,-1,-1,-1,-1],"loss_changes":[4.5563983E11,1.345669E11,1.0154305E11,3.5276194E10,3.990723E10,2.594911E10,2.7760525E10,0E0,0E0,0E0,0E0,0E0,0E0,0E0,0E0],"parents":[2147483647,0,0,1,1,2,2,3,3,4,4,5,5,6,6],"right_children":[2,4,6,8,10,12,14,-1,-1,-1,-1,-1,-1,-1,-1],"split_conditions":[3.2606E4,2.9553E4,3.792E4,2.3929E4,9E0,3.2267E4,4.5571E4,1.0335296E2,1.2395712E2,1.292124E2,1.501576E2,1.4464111E2,1.6413449E2,1.820238E2,2.1375836E2],"split_indices":[7,6,8,6,1,8,6,0,0,0,0,0,0,0,0],"split_type":[0,0,0,0,0,0,0,0,0,0,0,0,0,0,0],"sum_hessian":[1.36567E5,8.491E4,5.1657E4,4.2391E4,4.2519E4,3.4274E4,1.7383E4,1.1416E4,3.0975E4,1.3309E4,2.921E4,9.563E3,2.4711E4,1.389E4,3.493E3],"tree_param":{"num_deleted":"0","num_feature":"9","num_nodes":"15","size_leaf_vector":"1"}},{"base_weights":[1.4382694E4,1.3228906E4,1.7221943E4,1.1498594E4,1.4164492E4,1.6543879E4,1.9891633E4,1.02649284E2,1.2191356E2,1.2480653E2,1.4665895E2,1.6230525E2,1.9844936E2,1.6559476E2,2.0415285E2],"categories":[],"categories_nodes":[],"categories_segments":[],"categories_sizes":[],"default_left":[1,0,0,0,0,1,0,0,0,0,0,0,0,0,0],"id":80,"left_children":[1,3,5,7,9,11,13,-1,-1,-1,-1,-1,-1,-1,-1],"loss_changes":[4.4715265E11,1.5704628E11,7.1099744E10,2.900571E10,5.3029634E10,3.2232178E10,1.359872E10,0E0,0E0,0E0,0E0,0E0,0E0,0E0,0E0],"parents":[2147483647,0,0,1,1,2,2,3,3,4,4,5,5,6,6],"right_children":[2,4,6,8,10,12,14,-1,-1,-1,-1,-1,-1,-1,-1],"split_conditions":[3.4576E4,2.8641E4,4.3157E4,2.4966E4,7E0,4.401E4,1.65E2,1.02649284E2,1.2191356E2,1.2480653E2,1.4665895E2,1.6230525E2,1.9844936E2,1.6559476E2,2.0415285E2],"split_indices":[6,7,6,8,1,8,0,0,0,0,0,0,0,0,0],"split_type":[0,0,0,0,0,0,0,0,0,0,0,0,0,0,0],"sum_hessian":[1.36567E5,9.711E4,3.9457E4,3.4085E4,6.3025E4,3.1471E4,7.986E3,1.2263E4,2.1822E4,1.4467E4,4.8558E4,2.8748E4,2.723E3,1.089E3,6.897E3],"tree_param":{"num_deleted":"0","num_feature":"9","num_nodes":"15","size_leaf_vector":"1"}},{"base_weights":[1.4238877E4,1.2938494E4,1.6716422E4,1.1675832E4,1.4195129E4,1.5973383E4,1.9235072E4,1.02748344E2,1.2273292E2,1.26976036E2,1.4820676E2,1.4990723E2,1.6944344E2,1.6720053E2,1.9979265E2],"categories":[],"categories_nodes":[],"categories_segments":[],"categories_sizes":[],"default_left":[1,0,0,0,0,0,0,0,0,0,0,0,0,0,0],"id":81,"left_children":[1,3,5,7,9,11,13,-1,-1,-1,-1,-1,-1,-1,-1],"loss_changes":[4.3977068E11,1.4194783E11,8.765886E10,3.7273207E10,4.1859154E10,3.4382807E10,1.9698024E10,0E0,0E0,0E0,0E0,0E0,0E0,0E0,0E0],"parents":[2147483647,0,0,1,1,2,2,3,3,4,4,5,5,6,6],"right_children":[2,4,6,8,10,12,14,-1,-1,-1,-1,-1,-1,-1,-1],"split_conditions":[3.3202E4,2.9798E4,4.1292E4,2.4811E4,9E0,3.5698E4,1.72E2,1.02748344E2,1.2273292E2,1.26976036E2,1.4820676E2,1.4990723E2,1.6944344E2,1.6720053E2,1.9979265E2],"split_indices":[7,6,7,7,1,8,0,0,0,0,0,0,0,0,0],"split_type":[0,0,0,0,0,0,0,0,0,0,0,0,0,0,0],"sum_hessian":[1.36567E5,8.9564E4,4.7003E4,4.468E4,4.4884E4,3.6301E4,1.0702E4,1.3363E4,3.1317E4,1.3231E4,3.1653E4,1.805E4,1.8251E4,2.449E3,8.253E3],"tree_param":{"num_deleted":"0","num_feature":"9","num_nodes":"15","size_leaf_vector":"1"}},{"base_weights":[1.4096497E4,1.2963588E4,1.6884367E4,1.1200487E4,1.3848551E4,1.626926E4,1.9739666E4,1.0379057E2,1.21744385E2,1.27142075E2,1.4469257E2,1.5948451E2,1.9474097E2,1.9204625E2,2.2924823E2],"categories":[],"categories_nodes":[],"categories_segments":[],"categories_sizes":[],"default_left":[1,0,0,1,0,1,0,0,0,0,0,0,0,0,0],"id":82,"left_children":[1,3,5,7,9,11,13,-1,-1,-1,-1,-1,-1,-1,-1],"loss_changes":[4.3111783E11,1.5136509E11,6.897952E10,2.5841631E10,4.533833E10,3.3072611E10,1.1470373E10,0E0,0E0,0E0,0E0,0E0,0E0,0E0,0E0],"parents":[2147483647,0,0,1,1,2,2,3,3,4,4,5,5,6,6],"right_children":[2,4,6,8,10,12,14,-1,-1,-1,-1,-1,-1,-1,-1],"split_conditions":[3.4576E4,2.7776E4,4.3843E4,2.5544E4,3.1374E4,4.401E4,5.206E4,1.0379057E2,1.21744385E2,1.27142075E2,1.4469257E2,1.5948451E2,1.9474097E2,1.9204625E2,2.2924823E2],"split_indices":[6,6,6,7,8,8,6,0,0,0,0,0,0,0,0],"split_type":[0,0,0,0,0,0,0,0,0,0,0,0,0,0,0],"sum_hessian":[1.36567E5,9.711E4,3.9457E4,3.2458E4,6.4652E4,3.2469E4,6.988E3,1.7614E4,1.4844E4,2.2873E4,4.1779E4,2.952E4,2.949E3,5.989E3,9.99E2],"tree_param":{"num_deleted":"0","num_feature":"9","num_nodes":"15","size_leaf_vector":"1"}},{"base_weights":[1.3955541E4,1.2579969E4,1.6216318E4,1.1412704E4,1.3834556E4,1.5248234E4,1.81241E4,9.946376E1,1.1956122E2,1.2372217E2,1.4484438E2,1.3882854E2,1.5776045E2,1.7323682E2,2.0032144E2],"categories":[],"categories_nodes":[],"categories_segments":[],"categories_sizes":[],"default_left":[1,0,1,0,0,0,0,0,0,0,0,0,0,0,0],"id":83,"left_children":[1,3,5,7,9,11,13,-1,-1,-1,-1,-1,-1,-1,-1],"loss_changes":[4.245034E11,1.241881E11,9.512996E10,3.4935407E10,3.870923E10,2.4482152E10,2.6202341E10,0E0,0E0,0E0,0E0,0E0,0E0,0E0,0E0],"parents":[2147483647,0,0,1,1,2,2,3,3,4,4,5,5,6,6],"right_children":[2,4,6,8,10,12,14,-1,-1,-1,-1,-1,-1,-1,-1],"split_conditions":[3.2606E4,2.9798E4,3.792E4,2.4045E4,9E0,3.2267E4,4.3211E4,9.946376E1,1.1956122E2,1.2372217E2,1.4484438E2,1.3882854E2,1.5776045E2,1.7323682E2,2.0032144E2],"split_indices":[7,6,8,6,1,8,7,0,0,0,0,0,0,0,0],"split_type":[0,0,0,0,0,0,0,0,0,0,0,0,0,0,0],"sum_hessian":[1.36567E5,8.491E4,5.1657E4,4.3991E4,4.0919E4,3.4274E4,1.7383E4,1.19E4,3.2091E4,1.2596E4,2.8323E4,9.563E3,2.4711E4,1.2253E4,5.13E3],"tree_param":{"num_deleted":"0","num_feature":"9","num_nodes":"15","size_leaf_vector":"1"}},{"base_weights":[1.3815994E4,1.2550812E4,1.6226475E4,1.1326559E4,1.3769221E4,1.5500789E4,1.8686307E4,1.0211844E2,1.2047654E2,1.2110157E2,1.4310818E2,1.4542857E2,1.6447322E2,1.6221352E2,1.9415704E2],"categories":[],"categories_nodes":[],"categories_segments":[],"categories_sizes":[],"default_left":[1,0,0,0,0,0,0,0,0,0,0,0,0,0,0],"id":84,"left_children":[1,3,5,7,9,11,13,-1,-1,-1,-1,-1,-1,-1,-1],"loss_changes":[4.1628677E11,1.3344283E11,8.361555E10,